{"learner":{"attributes":{},"feature_names":[],"feature_types":[],"gradient_booster":{"model":{"cats":{"enc":[],"feature_segments":[],"sorted_idx":[]},"gbtree_model_param":{"num_parallel_tree":"1","num_trees":"50"},"iteration_indptr":[0,1,2,3,4,5,6,7,8,9,10,11,12,13,14,15,16,17,18,19,20,21,22,23,24,25,26,27,28,29,30,31,32,33,34,35,36,37,38,39,40,41,42,43,44,45,46,47,48,49,50],"tree_info":[0,0,0,0,0,0,0,0,0,0,0,0,0,0,0,0,0,0,0,0,0,0,0,0,0,0,0,0,0,0,0,0,0,0,0,0,0,0,0,0,0,0,0,0,0,0,0,0,0,0],"trees":[{"base_weights":[-8.4044585E-9,-2.0593628E-1,6.969656E-2,-5.612051E-1,-3.883921E-2,-6.796276E-2,-4.473472E-3,6.726078E-2,-3.2761443E-1,1.46685615E-2,-4.9526267E-2],"categories":[],"categories_nodes":[],"categories_segments":[],"categories_sizes":[],"default_left":[0,0,0,0,0,0,0,0,0,0,0],"id":0,"left_children":[1,3,-1,5,7,-1,-1,-1,9,-1,-1],"loss_changes":[3.8334985E0,1.2021089E0,0E0,3.6841178E-1,3.321837E0,0E0,0E0,0E0,9.7993565E-1,0E0,0E0],"parents":[2147483647,0,0,1,1,3,3,4,4,8,8],"right_children":[2,4,-1,6,8,-1,-1,-1,10,-1,-1],"split_conditions":[9.8377246E-1,-9.9692947E-1,6.969656E-2,-5.6074035E-1,-2.4194287E-1,-6.796276E-2,-4.473472E-3,6.726078E-2,-1.3135097E0,1.46685615E-2,-4.9526267E-2],"split_indices":[0,0,0,1,0,0,0,0,2,0,0],"split_type":[0,0,0,0,0,0,0,0,0,0,0],"sum_hessian":[2.47086E1,1.9616829E1,5.0917687E0,5.520664E0,1.4096165E1,4.233947E0,1.2867175E0,3.6859713E0,1.0410193E1,2.7513328E0,7.658861E0],"tree_param":{"num_deleted":"0","num_feature":"3","num_nodes":"11","size_leaf_vector":"1"}},{"base_weights":[6.7514283E-9,-1.1239195E-1,8.222913E-2,1.1000791E-1,-5.211773E-1,-3.1896362E-1,5.16958E-1,-1.0046618E-2,-5.741085E-1,-7.265919E-2,-1.7130364E-2,8.28714E-2,1.6670348E-2,-7.887677E-2,-4.0898733E-2],"categories":[],"categories_nodes":[],"categories_segments":[],"categories_sizes":[],"default_left":[0,0,0,0,0,0,0,0,0,0,0,0,0,0,0],"id":1,"left_children":[1,3,-1,5,7,9,11,-1,13,-1,-1,-1,-1,-1,-1],"loss_changes":[4.681946E0,4.109212E0,0E0,5.3479247E0,2.9590702E-1,7.827513E-1,1.5672193E0,0E0,1.6978598E-1,0E0,0E0,0E0,0E0,0E0,0E0],"parents":[2147483647,0,0,1,1,3,3,4,4,5,5,6,6,8,8],"right_children":[2,4,-1,6,8,10,12,-1,14,-1,-1,-1,-1,-1,-1],"split_conditions":[1.0551492E0,1.925195E-1,8.222913E-2,-8.469747E-1,-1.4990337E0,-1.4477655E0,-5.99908E-1,-1.0046618E-2,7.0601326E-1,-7.265919E-2,-1.7130364E-2,8.28714E-2,1.6670348E-2,-7.887677E-2,-4.0898733E-2],"split_indices":[0,1,0,0,2,0,1,0,1,0,0,0,0,0,0],"split_type":[0,0,0,0,0,0,0,0,0,0,0,0,0,0,0],"sum_hessian":[4.866003E1,4.3568363E1,5.091667E0,2.8690287E1,1.4878075E1,1.4072494E1,1.4617794E1,1.9865456E0,1.2891529E1,2.6995213E0,1.13729725E1,7.011202E0,7.606592E0,3.9628632E0,8.928665E0],"tree_param":{"num_deleted":"0","num_feature":"3","num_nodes":"15","size_leaf_vector":"1"}},{"base_weights":[2.0769265E-8,-1.7936435E-1,6.5833025E-2,-7.209932E-2,-2.2343986E-2,2.6738465E-1,-4.8834008E-1,6.176937E-3,5.39547E-2,9.150368E-4,-7.329984E-2],"categories":[],"categories_nodes":[],"categories_segments":[],"categories_sizes":[],"default_left":[0,0,0,0,0,0,0,0,0,0,0],"id":2,"left_children":[1,3,-1,-1,5,7,9,-1,-1,-1,-1],"loss_changes":[5.4341755E0,3.0597713E0,0E0,0E0,4.055447E0,1.005956E0,1.4062858E0,0E0,0E0,0E0,0E0],"parents":[2147483647,0,0,1,1,4,4,5,5,6,6],"right_children":[2,4,-1,-1,6,8,10,-1,-1,-1,-1],"split_conditions":[9.8377246E-1,-1.059162E0,6.5833025E-2,-7.209932E-2,2.1529278E-1,-4.9488027E-2,-1.3135097E0,6.176937E-3,5.39547E-2,9.150368E-4,-7.329984E-2],"split_indices":[0,0,0,0,0,0,2,0,0,0,0],"split_type":[0,0,0,0,0,0,0,0,0,0,0],"sum_hessian":[4.402075E1,3.516694E1,8.853808E0,7.096483E0,2.8070456E1,1.7571655E1,1.0498801E1,1.0708485E1,6.8631706E0,3.778389E0,6.720412E0],"tree_param":{"num_deleted":"0","num_feature":"3","num_nodes":"11","size_leaf_vector":"1"}},{"base_weights":[1.0870858E-8,-4.4393787E-1,1.446971E-1,-5.752178E-1,-8.430733E-2,5.123006E-2,6.923714E-2,-7.306284E-3,-6.826737E-2,2.7302224E-2,-4.2906236E-2,5.7630807E-2,-9.6488774E-2,6.42753E-3,-4.6776753E-2],"categories":[],"categories_nodes":[],"categories_segments":[],"categories_sizes":[],"default_left":[0,0,0,0,0,0,0,0,0,0,0,0,0,0,0],"id":3,"left_children":[1,3,5,7,9,11,-1,-1,-1,-1,-1,-1,13,-1,-1],"loss_changes":[2.7278035E0,4.4433784E-1,1.6039417E0,3.5349107E-1,6.053819E-1,2.2613208E0,0E0,0E0,0E0,0E0,0E0,0E0,1.4058968E0,0E0,0E0],"parents":[2147483647,0,0,1,1,2,2,3,3,4,4,5,5,12,12],"right_children":[2,4,6,8,10,12,-1,-1,-1,-1,-1,-1,14,-1,-1],"split_conditions":[-9.9692947E-1,-6.583984E-1,1.0551492E0,-1.5879492E0,-4.5153737E-1,-2.4194287E-1,6.923714E-2,-7.306284E-3,-6.826737E-2,2.7302224E-2,-4.2906236E-2,5.7630807E-2,6.34492E-1,6.42753E-3,-4.6776753E-2],"split_indices":[0,1,0,1,1,0,0,0,0,0,0,0,2,0,0],"split_type":[0,0,0,0,0,0,0,0,0,0,0,0,0,0,0],"sum_hessian":[4.0465E1,9.438663E0,3.1026337E1,6.4754047E0,2.9632578E0,2.743737E1,3.5889673E0,1.437538E0,5.0378666E0,1.5572636E0,1.4059942E0,5.387105E0,2.2050266E1,1.5964501E1,6.0857635E0],"tree_param":{"num_deleted":"0","num_feature":"3","num_nodes":"15","size_leaf_vector":"1"}},{"base_weights":[-0E0,-1.3551158E-1,5.265089E-1,-4.742356E-1,1.1252719E-3,2.9011288E-1,6.636759E-2,-5.6660045E-2,-8.861148E-3,2.704272E-1,-3.1088126E-1,4.7846377E-2,1.12791575E-1,3.868941E-2,-2.930271E-2,1.6135907E-2,-4.58404E-2,4.7846377E-2,-1.9799048E-2],"categories":[],"categories_nodes":[],"categories_segments":[],"categories_sizes":[],"default_left":[0,0,0,0,0,0,0,0,0,0,0,0,0,0,0,0,0,0,0],"id":4,"left_children":[1,3,5,7,9,11,-1,-1,-1,13,15,-1,17,-1,-1,-1,-1,-1,-1],"loss_changes":[2.910371E0,1.5019953E0,7.8204155E-2,2.8201294E-1,2.1102395E0,1.0776621E-1,0E0,0E0,0E0,9.9782395E-1,8.846414E-1,0E0,5.268903E-1,0E0,0E0,0E0,0E0,0E0,0E0],"parents":[2147483647,0,0,1,1,2,2,3,3,4,4,5,5,9,9,10,10,12,12],"right_children":[2,4,6,8,10,12,-1,-1,-1,14,16,-1,18,-1,-1,-1,-1,-1,-1],"split_conditions":[9.8377246E-1,-9.9692947E-1,1.0551492E0,-5.6074035E-1,1.925195E-1,1.0000279E0,6.636759E-2,-5.6660045E-2,-8.861148E-3,4.378068E-1,-2.9242244E-2,4.7846377E-2,1.2584628E0,3.868941E-2,-2.930271E-2,1.6135907E-2,-4.58404E-2,4.7846377E-2,-1.9799048E-2],"split_indices":[0,0,0,1,1,0,0,0,0,0,0,0,1,0,0,0,0,0,0],"split_type":[0,0,0,0,0,0,0,0,0,0,0,0,0,0,0,0,0,0,0],"sum_hessian":[3.8791172E1,3.1441465E1,7.349705E0,8.327283E0,2.3114183E1,3.8425026E0,3.5072026E0,6.339528E0,1.9877546E0,1.2477636E1,1.0636547E1,1.0397705E0,2.802732E0,1.059996E1,1.8776755E0,2.5095015E0,8.127046E0,1.0397705E0,1.7629616E0],"tree_param":{"num_deleted":"0","num_feature":"3","num_nodes":"19","size_leaf_vector":"1"}},{"base_weights":[4.8076704E-10,-1.1881466E-1,5.072425E-1,-4.5921093E-1,-2.0233033E-2,2.7465228E-2,6.2437918E-2,-1.3753371E-2,-5.0615083E-2,6.018801E-2,-5.6747194E-2,2.6755912E-2,-5.1482967E-3],"categories":[],"categories_nodes":[],"categories_segments":[],"categories_sizes":[],"default_left":[0,0,0,0,0,0,0,0,0,0,0,0,0],"id":5,"left_children":[1,3,5,7,9,-1,-1,-1,-1,11,-1,-1,-1],"loss_changes":[2.3952365E0,1.0712596E0,3.4008622E-2,3.8880587E-2,1.1790805E0,0E0,0E0,0E0,0E0,5.5996823E-1,0E0,0E0,0E0],"parents":[2147483647,0,0,1,1,2,2,3,3,4,4,9,9],"right_children":[2,4,6,8,10,-1,-1,-1,-1,12,-1,-1,-1],"split_conditions":[9.8377246E-1,-1.059162E0,1.0551492E0,-1.5879492E0,8.2211566E-1,2.7465228E-2,6.2437918E-2,-1.3753371E-2,-5.0615083E-2,-2.4194287E-1,-5.6747194E-2,2.6755912E-2,-5.1482967E-3],"split_indices":[0,0,0,1,0,0,0,0,0,0,0,0,0],"split_type":[0,0,0,0,0,0,0,0,0,0,0,0,0],"sum_hessian":[3.7743195E1,3.1200634E1,6.542561E0,6.185231E0,2.5015402E1,3.3116205E0,3.2309406E0,1.2880781E0,4.8971534E0,2.2586199E1,2.4292035E0,7.4169984E0,1.51692E1],"tree_param":{"num_deleted":"0","num_feature":"3","num_nodes":"13","size_leaf_vector":"1"}},{"base_weights":[-1.4036905E-8,-1.06987394E-1,4.7001436E-1,2.2481625E-1,-2.036078E-1,2.257864E-2,6.0224425E-2,-1.14754755E-2,4.1841634E-2,-6.929282E-2,-5.0932246E-1,-2.0251324E-2,4.4377945E-2,2.1177573E-2,-7.146738E-2],"categories":[],"categories_nodes":[],"categories_segments":[],"categories_sizes":[],"default_left":[0,0,0,0,0,0,0,0,0,0,0,0,0,0,0],"id":6,"left_children":[1,3,5,7,9,-1,-1,-1,-1,11,13,-1,-1,-1,-1],"loss_changes":[1.9720271E0,1.0699E0,9.8849416E-2,5.528832E-1,1.0021555E0,0E0,0E0,0E0,0E0,1.3687875E0,1.2700158E0,0E0,0E0,0E0,0E0],"parents":[2147483647,0,0,1,1,2,2,3,3,4,4,9,9,10,10],"right_children":[2,4,6,8,10,-1,-1,-1,-1,12,14,-1,-1,-1,-1],"split_conditions":[9.8377246E-1,-1.3135097E0,1.0551492E0,6.340976E-2,2.1529278E-1,2.257864E-2,6.0224425E-2,-1.14754755E-2,4.1841634E-2,-4.9488027E-2,-8.724672E-1,-2.0251324E-2,4.4377945E-2,2.1177573E-2,-7.146738E-2],"split_indices":[0,2,0,0,0,0,0,0,0,0,1,0,0,0,0],"split_type":[0,0,0,0,0,0,0,0,0,0,0,0,0,0,0],"sum_hessian":[3.721653E1,3.094502E1,6.2715096E0,6.679655E0,2.4265366E1,3.153865E0,3.1176445E0,2.5733335E0,4.1063213E0,1.7710821E1,6.554546E0,1.4540609E1,3.1702106E0,1.4459069E0,5.1086392E0],"tree_param":{"num_deleted":"0","num_feature":"3","num_nodes":"15","size_leaf_vector":"1"}},{"base_weights":[-4.982376E-9,-1.1978001E-1,4.7667214E-1,-4.7729507E-1,-4.612126E-2,5.997154E-2,2.8537557E-1,-1.3807516E-2,-5.5236615E-2,2.3000957E-1,-1.6289276E-1,-1.7006971E-2,5.71638E-2,-1.4968425E-3,4.4775184E-2,2.0316036E-2,-3.9329864E-2],"categories":[],"categories_nodes":[],"categories_segments":[],"categories_sizes":[],"default_left":[0,0,0,0,0,0,0,0,0,0,0,0,0,0,0,0,0],"id":7,"left_children":[1,3,5,7,9,-1,11,-1,-1,13,15,-1,-1,-1,-1,-1,-1],"loss_changes":[2.1916037E0,7.85818E-1,1.0295153E-2,5.4461002E-2,8.9331496E-1,0E0,7.3935086E-1,0E0,0E0,4.4960868E-1,1.7025812E0,0E0,0E0,0E0,0E0,0E0,0E0],"parents":[2147483647,0,0,1,1,2,2,3,3,4,4,6,6,9,9,10,10],"right_children":[2,4,6,8,10,-1,12,-1,-1,14,16,-1,-1,-1,-1,-1,-1],"split_conditions":[9.8377246E-1,-1.2169055E0,1.2584628E0,-1.5879492E0,-4.5153737E-1,5.997154E-2,1.3880545E0,-1.3807516E-2,-5.5236615E-2,-8.8388294E-1,-7.569378E-1,-1.7006971E-2,5.71638E-2,-1.4968425E-3,4.4775184E-2,2.0316036E-2,-3.9329864E-2],"split_indices":[0,0,1,1,1,0,1,0,0,0,2,0,0,0,0,0,0],"split_type":[0,0,0,0,0,0,0,0,0,0,0,0,0,0,0,0,0],"sum_hessian":[3.6384678E1,2.9676235E1,6.708442E0,4.133549E0,2.5542686E1,2.7832394E0,3.9252028E0,1.2634987E0,2.8700504E0,7.303138E0,1.8239548E1,1.6715895E0,2.2536132E0,3.8748589E0,3.4282787E0,7.091426E0,1.1148123E1],"tree_param":{"num_deleted":"0","num_feature":"3","num_nodes":"17","size_leaf_vector":"1"}},{"base_weights":[2.7700684E-9,-1.21197134E-1,4.808174E-2,-3.8995665E-1,-8.583222E-3,-5.2244313E-2,-2.9498806E-2,4.1004586E-1,-1.6596118E-1,2.1060059E-2,-2.8826008E-2,1.4313899E-2,6.0429305E-2,-5.9452858E-2,-6.954351E-3],"categories":[],"categories_nodes":[],"categories_segments":[],"categories_sizes":[],"default_left":[0,0,0,0,0,0,0,0,0,0,0,0,0,0,0],"id":8,"left_children":[1,3,-1,5,7,-1,9,11,13,-1,-1,-1,-1,-1,-1],"loss_changes":[2.1938186E0,9.066861E-1,0E0,4.0751684E-1,1.5314261E0,0E0,2.7443242E-1,2.4307907E-1,6.5512186E-1,0E0,0E0,0E0,0E0,0E0,0E0],"parents":[2147483647,0,0,1,1,3,3,4,4,6,6,7,7,8,8],"right_children":[2,4,-1,6,8,-1,10,12,14,-1,-1,-1,-1,-1,-1],"split_conditions":[9.8377246E-1,-9.9692947E-1,4.808174E-2,-6.583984E-1,-2.4194287E-1,-5.2244313E-2,-4.5153737E-1,-8.469747E-1,-4.9488027E-2,2.1060059E-2,-2.8826008E-2,1.4313899E-2,6.0429305E-2,-5.9452858E-2,-6.954351E-3],"split_indices":[0,0,0,1,0,0,1,0,0,0,0,0,0,0,0],"split_type":[0,0,0,0,0,0,0,0,0,0,0,0,0,0,0],"sum_hessian":[3.5646805E1,2.9067778E1,6.579028E0,7.8560624E0,2.1211716E1,5.4160156E0,2.440047E0,5.356859E0,1.58548565E1,1.3622047E0,1.0778422E0,2.9880273E0,2.3688319E0,1.9630605E0,1.3891796E1],"tree_param":{"num_deleted":"0","num_feature":"3","num_nodes":"15","size_leaf_vector":"1"}},{"base_weights":[-8.274433E-10,-1.1203701E-1,4.5007697E-1,-3.8019928E-1,1.2501689E-3,2.5239686E-2,5.574326E-2,-4.7226557E-1,-6.673832E-4,2.4423364E-1,-2.912267E-1,-1.410988E-2,-5.2083004E-2,3.364057E-2,-2.4879575E-2,1.2890204E-3,-3.6091354E-2],"categories":[],"categories_nodes":[],"categories_segments":[],"categories_sizes":[],"default_left":[0,0,0,0,0,0,0,0,0,0,0,0,0,0,0,0,0],"id":9,"left_children":[1,3,5,7,9,-1,-1,11,-1,13,15,-1,-1,-1,-1,-1,-1],"loss_changes":[1.8666106E0,9.008976E-1,1.5883684E-2,2.9967487E-1,1.6227629E0,0E0,0E0,3.990066E-2,0E0,6.503603E-1,2.242912E-1,0E0,0E0,0E0,0E0,0E0,0E0],"parents":[2147483647,0,0,1,1,2,2,3,3,4,4,7,7,9,9,10,10],"right_children":[2,4,6,8,10,-1,-1,12,-1,14,16,-1,-1,-1,-1,-1,-1],"split_conditions":[9.8377246E-1,-9.9692947E-1,1.0551492E0,-5.6074035E-1,1.925195E-1,2.5239686E-2,5.574326E-2,-1.5879492E0,-6.673832E-4,4.378068E-1,-2.9242244E-2,-1.410988E-2,-5.2083004E-2,3.364057E-2,-2.4879575E-2,1.2890204E-3,-3.6091354E-2],"split_indices":[0,0,0,1,1,0,0,1,0,0,0,0,0,0,0,0,0],"split_type":[0,0,0,0,0,0,0,0,0,0,0,0,0,0,0,0,0],"sum_hessian":[3.5017357E1,2.8639292E1,6.3780665E0,7.8058906E0,2.0833403E1,3.424103E0,2.9539635E0,6.0502763E0,1.7556143E0,1.1469629E1,9.363772E0,1.2732472E0,4.777029E0,9.930748E0,1.5388814E0,1.8975954E0,7.4661775E0],"tree_param":{"num_deleted":"0","num_feature":"3","num_nodes":"17","size_leaf_vector":"1"}},{"base_weights":[-7.2939503E-9,-1.0597949E-1,4.3035713E-1,-3.630785E-1,8.591522E-4,2.2605173E-2,5.458931E-2,-4.4818345E-2,-2.3186412E-3,3.7871057E-1,-1.376437E-1,1.2102261E-2,5.7098527E-2,2.3214584E-2,-3.0071098E-2],"categories":[],"categories_nodes":[],"categories_segments":[],"categories_sizes":[],"default_left":[0,0,0,0,0,0,0,0,0,0,0,0,0,0,0],"id":10,"left_children":[1,3,5,7,9,-1,-1,-1,-1,11,13,-1,-1,-1,-1],"loss_changes":[1.6645571E0,8.047049E-1,4.6827197E-2,2.3835409E-1,1.1869986E0,0E0,0E0,0E0,0E0,2.3230553E-1,1.0709243E0,0E0,0E0,0E0,0E0],"parents":[2147483647,0,0,1,1,2,2,3,3,4,4,9,9,10,10],"right_children":[2,4,6,8,10,-1,-1,-1,-1,12,14,-1,-1,-1,-1],"split_conditions":[9.8377246E-1,-9.9692947E-1,1.0551492E0,-5.6074035E-1,-2.4194287E-1,2.2605173E-2,5.458931E-2,-4.4818345E-2,-2.3186412E-3,-8.469747E-1,-1.3135097E0,1.2102261E-2,5.7098527E-2,2.3214584E-2,-3.0071098E-2],"split_indices":[0,0,0,1,0,0,0,0,0,0,2,0,0,0,0],"split_type":[0,0,0,0,0,0,0,0,0,0,0,0,0,0,0],"sum_hessian":[3.4496223E1,2.8284613E1,6.21161E0,7.59924E0,2.0685373E1,3.3118036E0,2.8998065E0,5.8227E0,1.7765397E0,5.0832834E0,1.5602089E1,2.868425E0,2.2148585E0,4.644985E0,1.0957104E1],"tree_param":{"num_deleted":"0","num_feature":"3","num_nodes":"15","size_leaf_vector":"1"}},{"base_weights":[-5.315938E-10,-1.03417434E-1,4.1960356E-1,-3.5762686E-1,4.101424E-3,2.209035E-2,5.3376008E-2,-4.482896E-1,-8.857188E-2,2.1048196E-1,-2.4545124E-1,-1.3452127E-2,-4.977106E-2,1.8074093E-2,-3.2949366E-2,8.107841E-3,5.971365E-2,-2.4355005E-3,-3.809471E-2],"categories":[],"categories_nodes":[],"categories_segments":[],"categories_sizes":[],"default_left":[0,0,0,0,0,0,0,0,0,0,0,0,0,0,0,0,0,0,0],"id":11,"left_children":[1,3,5,7,9,-1,-1,11,13,15,17,-1,-1,-1,-1,-1,-1,-1,-1],"loss_changes":[1.5638828E0,7.917225E-1,4.3728948E-2,1.7020547E-1,1.1490632E0,0E0,0E0,2.9037237E-2,2.8113565E-1,5.620528E-1,2.934928E-1,0E0,0E0,0E0,0E0,0E0,0E0,0E0,0E0],"parents":[2147483647,0,0,1,1,2,2,3,3,4,4,7,7,8,8,9,9,10,10],"right_children":[2,4,6,8,10,-1,-1,12,14,16,18,-1,-1,-1,-1,-1,-1,-1,-1],"split_conditions":[9.8377246E-1,-9.9692947E-1,1.0551492E0,-6.583984E-1,1.925195E-1,2.209035E-2,5.3376008E-2,-1.5879492E0,-4.5153737E-1,9.787896E-2,-1.3135097E0,-1.3452127E-2,-4.977106E-2,1.8074093E-2,-3.2949366E-2,8.107841E-3,5.971365E-2,-2.4355005E-3,-3.809471E-2],"split_indices":[0,0,0,1,1,0,0,1,1,1,2,0,0,0,0,0,0,0,0],"split_type":[0,0,0,0,0,0,0,0,0,0,0,0,0,0,0,0,0,0,0],"sum_hessian":[3.403888E1,2.7912878E1,6.1260014E0,7.605302E0,2.0307577E1,3.3062525E0,2.8197489E0,5.190208E0,2.415094E0,1.120094E1,9.106636E0,1.2127213E0,3.9774864E0,1.2583027E0,1.1567912E0,9.298618E0,1.9023216E0,3.9085622E0,5.198074E0],"tree_param":{"num_deleted":"0","num_feature":"3","num_nodes":"19","size_leaf_vector":"1"}},{"base_weights":[2.4822704E-9,-1.0209349E-1,4.098751E-1,-3.6407384E-1,6.9753E-3,2.1127163E-2,5.2557256E-2,-4.3252755E-2,-6.658867E-3,3.5906717E-1,-1.1944248E-1,1.20392535E-2,5.392158E-2,-5.800379E-2,-1.2550565E-3],"categories":[],"categories_nodes":[],"categories_segments":[],"categories_sizes":[],"default_left":[0,0,0,0,0,0,0,0,0,0,0,0,0,0,0],"id":12,"left_children":[1,3,5,7,9,-1,-1,-1,-1,11,13,-1,-1,-1,-1],"loss_changes":[1.4862487E0,8.150321E-1,5.1706195E-2,1.417898E-1,9.8017913E-1,0E0,0E0,0E0,0E0,1.8501723E-1,7.9251635E-1,0E0,0E0,0E0,0E0],"parents":[2147483647,0,0,1,1,2,2,3,3,4,4,9,9,10,10],"right_children":[2,4,6,8,10,-1,-1,-1,-1,12,14,-1,-1,-1,-1],"split_conditions":[9.8377246E-1,-9.9692947E-1,1.0551492E0,-5.6074035E-1,-2.4194287E-1,2.1127163E-2,5.2557256E-2,-4.3252755E-2,-6.658867E-3,-8.469747E-1,-4.9488027E-2,1.20392535E-2,5.392158E-2,-5.800379E-2,-1.2550565E-3],"split_indices":[0,0,0,1,0,0,0,0,0,0,0,0,0,0,0],"split_type":[0,0,0,0,0,0,0,0,0,0,0,0,0,0,0],"sum_hessian":[3.3517464E1,2.7434797E1,6.0826645E0,7.377123E0,2.0057674E1,3.2793982E0,2.8032665E0,5.6281047E0,1.7490182E0,4.812855E0,1.5244821E1,2.78774E0,2.0251148E0,2.0377586E0,1.3207062E1],"tree_param":{"num_deleted":"0","num_feature":"3","num_nodes":"15","size_leaf_vector":"1"}},{"base_weights":[6.0421885E-9,-9.990143E-2,4.0344602E-1,-3.4888E-1,5.9018666E-3,2.0710828E-2,5.163932E-2,-4.0921497E-1,-7.952789E-3,3.5969844E-1,-1.18532576E-1,-1.3078565E-2,-4.446092E-2,1.433517E-2,5.1537056E-2,-5.4198157E-2,-2.6385838E-3],"categories":[],"categories_nodes":[],"categories_segments":[],"categories_sizes":[],"default_left":[0,0,0,0,0,0,0,0,0,0,0,0,0,0,0,0,0],"id":13,"left_children":[1,3,5,7,9,-1,-1,11,-1,13,15,-1,-1,-1,-1,-1,-1],"loss_changes":[1.4141303E0,7.4287605E-1,4.747486E-2,1.0402048E-1,9.547777E-1,0E0,0E0,7.1315765E-3,0E0,1.16033375E-1,6.1313546E-1,0E0,0E0,0E0,0E0,0E0,0E0],"parents":[2147483647,0,0,1,1,2,2,3,3,4,4,7,7,9,9,10,10],"right_children":[2,4,6,8,10,-1,-1,12,-1,14,16,-1,-1,-1,-1,-1,-1],"split_conditions":[9.8377246E-1,-9.9692947E-1,1.0551492E0,-5.6074035E-1,-2.4194287E-1,2.0710828E-2,5.163932E-2,-1.5879492E0,-7.952789E-3,-8.469747E-1,-4.9488027E-2,-1.3078565E-2,-4.446092E-2,1.433517E-2,5.1537056E-2,-5.4198157E-2,-2.6385838E-3],"split_indices":[0,0,0,1,0,0,0,1,0,0,0,0,0,0,0,0,0],"split_type":[0,0,0,0,0,0,0,0,0,0,0,0,0,0,0,0,0],"sum_hessian":[3.3085873E1,2.7122234E1,5.9636374E0,7.403268E0,1.9718967E1,3.2126737E0,2.7509634E0,5.624191E0,1.7790769E0,4.6388764E0,1.50800905E1,1.1638508E0,4.46034E0,2.7449348E0,1.8939416E0,1.8226418E0,1.3257448E1],"tree_param":{"num_deleted":"0","num_feature":"3","num_nodes":"17","size_leaf_vector":"1"}},{"base_weights":[1.10526595E-10,-9.7241126E-2,3.963345E-1,-3.400717E-1,6.6311373E-3,2.0214941E-2,5.072243E-2,-4.1162964E-2,-1.12498164E-1,3.5614535E-1,-1.1411846E-1,1.6478786E-2,-3.4011018E-2,1.534908E-2,4.9717546E-2,1.8370694E-2,-2.194656E-2],"categories":[],"categories_nodes":[],"categories_segments":[],"categories_sizes":[],"default_left":[0,0,0,0,0,0,0,0,0,0,0,0,0,0,0,0,0],"id":14,"left_children":[1,3,5,7,9,-1,-1,-1,11,13,15,-1,-1,-1,-1,-1,-1],"loss_changes":[1.3375281E0,7.051692E-1,4.4694543E-2,8.996689E-2,9.057899E-1,0E0,0E0,0E0,2.6923937E-1,8.1059694E-2,5.4209983E-1,0E0,0E0,0E0,0E0,0E0,0E0],"parents":[2147483647,0,0,1,1,2,2,3,3,4,4,8,8,9,9,10,10],"right_children":[2,4,6,8,10,-1,-1,-1,12,14,16,-1,-1,-1,-1,-1,-1],"split_conditions":[9.8377246E-1,-9.9692947E-1,1.0551492E0,-6.583984E-1,-2.4194287E-1,2.0214941E-2,5.072243E-2,-4.1162964E-2,-4.5153737E-1,-8.469747E-1,-1.4990337E0,1.6478786E-2,-3.4011018E-2,1.534908E-2,4.9717546E-2,1.8370694E-2,-2.194656E-2],"split_indices":[0,0,0,1,0,0,0,0,1,0,2,0,0,0,0,0,0],"split_type":[0,0,0,0,0,0,0,0,0,0,0,0,0,0,0,0,0],"sum_hessian":[3.270492E1,2.686758E1,5.837343E0,7.3682604E0,1.949932E1,3.147887E0,2.689456E0,4.9903316E0,2.3779287E0,4.506277E0,1.4993042E1,1.1964183E0,1.1815104E0,2.70609E0,1.8001871E0,3.7232559E0,1.1269787E1],"tree_param":{"num_deleted":"0","num_feature":"3","num_nodes":"17","size_leaf_vector":"1"}},{"base_weights":[1.5640115E-9,-9.502727E-2,3.887818E-1,-3.3571994E-1,7.820489E-3,2.00425E-2,4.9722783E-2,-3.8975704E-1,-8.430414E-3,2.0839451E-1,-2.2870444E-1,-1.1969552E-2,-4.2342607E-2,2.9848857E-2,-2.0719292E-2,7.456172E-3,-3.1188145E-2],"categories":[],"categories_nodes":[],"categories_segments":[],"categories_sizes":[],"default_left":[0,0,0,0,0,0,0,0,0,0,0,0,0,0,0,0,0],"id":15,"left_children":[1,3,5,7,9,-1,-1,11,-1,13,15,-1,-1,-1,-1,-1,-1],"loss_changes":[1.2689213E0,6.858605E-1,3.8143277E-2,7.970828E-2,1.0114009E0,0E0,0E0,8.818805E-3,0E0,4.9302495E-1,2.7042305E-1,0E0,0E0,0E0,0E0,0E0,0E0],"parents":[2147483647,0,0,1,1,2,2,3,3,4,4,7,7,9,9,10,10],"right_children":[2,4,6,8,10,-1,-1,12,-1,14,16,-1,-1,-1,-1,-1,-1],"split_conditions":[9.8377246E-1,-9.9692947E-1,1.0551492E0,-5.6074035E-1,1.925195E-1,2.00425E-2,4.9722783E-2,-1.5879492E0,-8.430414E-3,4.378068E-1,-2.9242244E-2,-1.1969552E-2,-4.2342607E-2,2.9848857E-2,-2.0719292E-2,7.456172E-3,-3.1188145E-2],"split_indices":[0,0,0,1,1,0,0,1,0,0,0,0,0,0,0,0,0],"split_type":[0,0,0,0,0,0,0,0,0,0,0,0,0,0,0,0,0],"sum_hessian":[3.2346344E1,2.6600212E1,5.746131E0,7.2856054E0,1.9314608E1,3.1401863E0,2.6059446E0,5.543817E0,1.7417886E0,1.0515964E1,8.798644E0,1.119477E0,4.42434E0,8.873967E0,1.6419955E0,1.916091E0,6.8825526E0],"tree_param":{"num_deleted":"0","num_feature":"3","num_nodes":"17","size_leaf_vector":"1"}},{"base_weights":[1.271835E-9,-9.1298796E-2,3.7655878E-1,-4.3462753E-1,-2.102619E-2,1.855026E-2,4.8939466E-2,-1.2943863E-2,-4.9418606E-2,2.3671806E-1,-1.2360326E-1,-1.9818316E-3,3.5817347E-2,1.69237E-2,-2.9704357E-2],"categories":[],"categories_nodes":[],"categories_segments":[],"categories_sizes":[],"default_left":[0,0,0,0,0,0,0,0,0,0,0,0,0,0,0],"id":16,"left_children":[1,3,5,7,9,-1,-1,-1,-1,11,13,-1,-1,-1,-1],"loss_changes":[1.1672485E0,6.50158E-1,5.204785E-2,1.9501269E-2,6.567668E-1,0E0,0E0,0E0,0E0,2.2831267E-1,9.459405E-1,0E0,0E0,0E0,0E0],"parents":[2147483647,0,0,1,1,2,2,3,3,4,4,9,9,10,10],"right_children":[2,4,6,8,10,-1,-1,-1,-1,12,14,-1,-1,-1,-1],"split_conditions":[9.8377246E-1,-1.2169055E0,1.0551492E0,-1.5879492E0,-4.5153737E-1,1.855026E-2,4.8939466E-2,-1.2943863E-2,-4.9418606E-2,6.34492E-1,-7.569378E-1,-1.9818316E-3,3.5817347E-2,1.69237E-2,-2.9704357E-2],"split_indices":[0,0,0,1,1,0,0,0,0,2,2,0,0,0,0],"split_type":[0,0,0,0,0,0,0,0,0,0,0,0,0,0,0],"sum_hessian":[3.195201E1,2.6326536E1,5.6254725E0,3.5920565E0,2.273448E1,3.0704765E0,2.5549958E0,1.1046953E0,2.4873612E0,6.0998206E0,1.6634659E1,2.2288668E0,3.8709538E0,6.196535E0,1.0438125E1],"tree_param":{"num_deleted":"0","num_feature":"3","num_nodes":"15","size_leaf_vector":"1"}},{"base_weights":[1.2425982E-8,-3.4352198E-1,1.05767146E-1,-4.18408E-2,-1.1288781E-1,1.326888E-2,3.7225863E-1,1.42408805E-2,-3.179972E-2,1.8577811E-1,-1.9261265E-1,1.8991796E-2,4.8046615E-2,6.7469426E-3,5.4885216E-2,8.796993E-3,-2.7740194E-2],"categories":[],"categories_nodes":[],"categories_segments":[],"categories_sizes":[],"default_left":[0,0,0,0,0,0,0,0,0,0,0,0,0,0,0,0,0],"id":17,"left_children":[1,3,5,-1,7,9,11,-1,-1,13,15,-1,-1,-1,-1,-1,-1],"loss_changes":[1.2209121E0,8.939111E-2,6.283827E-1,0E0,2.185276E-1,7.500023E-1,3.863871E-2,0E0,0E0,4.5482662E-1,2.541932E-1,0E0,0E0,0E0,0E0,0E0,0E0],"parents":[2147483647,0,0,1,1,2,2,4,4,5,5,6,6,9,9,10,10],"right_children":[2,4,6,-1,8,10,12,-1,-1,14,16,-1,-1,-1,-1,-1,-1],"split_conditions":[-9.9692947E-1,-6.583984E-1,9.8377246E-1,-4.18408E-2,-4.5153737E-1,1.925195E-1,1.0551492E0,1.42408805E-2,-3.179972E-2,9.787896E-2,-2.9242244E-2,1.8991796E-2,4.8046615E-2,6.7469426E-3,5.4885216E-2,8.796993E-3,-2.7740194E-2],"split_indices":[0,1,0,0,1,1,0,0,0,1,0,0,0,0,0,0,0],"split_type":[0,0,0,0,0,0,0,0,0,0,0,0,0,0,0,0,0],"sum_hessian":[3.1603085E1,6.9105005E0,2.4692583E1,4.602065E0,2.3084354E0,1.9109524E1,5.5830584E0,1.1645858E0,1.1438496E0,1.0450577E1,8.658948E0,3.105352E0,2.4777064E0,8.776545E0,1.6740327E0,2.0007157E0,6.658232E0],"tree_param":{"num_deleted":"0","num_feature":"3","num_nodes":"17","size_leaf_vector":"1"}},{"base_weights":[7.61849E-9,-3.2963708E-1,1.0165132E-1,-3.8939503E-1,-6.9249184E-3,1.2185098E-2,3.6144716E-1,-1.2405506E-2,-4.2504214E-2,3.1399676E-1,-9.295336E-2,1.755729E-2,4.739631E-2,9.386307E-3,4.8413847E-2,-5.423228E-2,1.0584088E-3],"categories":[],"categories_nodes":[],"categories_segments":[],"categories_sizes":[],"default_left":[0,0,0,0,0,0,0,0,0,0,0,0,0,0,0,0,0],"id":18,"left_children":[1,3,5,7,-1,9,11,-1,-1,13,15,-1,-1,-1,-1,-1,-1],"loss_changes":[1.1128545E0,9.483576E-2,5.8559155E-1,5.4445267E-3,0E0,6.6117686E-1,5.2042603E-2,0E0,0E0,1.5583378E-1,7.28879E-1,0E0,0E0,0E0,0E0,0E0,0E0],"parents":[2147483647,0,0,1,1,2,2,3,3,5,5,6,6,9,9,10,10],"right_children":[2,4,6,8,-1,10,12,-1,-1,14,16,-1,-1,-1,-1,-1,-1],"split_conditions":[-9.9692947E-1,-5.6074035E-1,9.8377246E-1,-1.5879492E0,-6.9249184E-3,-2.4194287E-1,1.0551492E0,-1.2405506E-2,-4.2504214E-2,-8.469747E-1,-4.9488027E-2,1.755729E-2,4.739631E-2,9.386307E-3,4.8413847E-2,-5.423228E-2,1.0584088E-3],"split_indices":[0,1,0,1,0,0,0,0,0,0,0,0,0,0,0,0,0],"split_type":[0,0,0,0,0,0,0,0,0,0,0,0,0,0,0,0,0],"sum_hessian":[3.1211567E1,6.8277073E0,2.438386E1,5.1502934E0,1.6774137E0,1.8916473E1,5.4673867E0,1.1405646E0,4.009729E0,4.3739767E0,1.4542496E1,3.0270996E0,2.440287E0,2.5833054E0,1.7906713E0,1.9296333E0,1.2612863E1],"tree_param":{"num_deleted":"0","num_feature":"3","num_nodes":"17","size_leaf_vector":"1"}},{"base_weights":[-4.3253383E-9,-3.2236132E-1,1.0028962E-1,-3.7979975E-2,-7.339274E-3,1.168621E-2,3.580922E-1,3.126879E-1,-9.159856E-2,1.754131E-2,4.6710752E-2,1.0562482E-2,4.685409E-2,-5.140025E-2,1.11881986E-4],"categories":[],"categories_nodes":[],"categories_segments":[],"categories_sizes":[],"default_left":[0,0,0,0,0,0,0,0,0,0,0,0,0,0,0],"id":19,"left_children":[1,3,5,-1,-1,7,9,11,13,-1,-1,-1,-1,-1,-1],"loss_changes":[1.0625749E0,8.365291E-2,5.684259E-1,0E0,0E0,6.407805E-1,4.5083106E-2,1.2015617E-1,6.0500026E-1,0E0,0E0,0E0,0E0,0E0,0E0],"parents":[2147483647,0,0,1,1,2,2,5,5,6,6,7,7,8,8],"right_children":[2,4,6,-1,-1,8,10,12,14,-1,-1,-1,-1,-1,-1],"split_conditions":[-9.9692947E-1,-5.6074035E-1,9.8377246E-1,-3.7979975E-2,-7.339274E-3,-2.4194287E-1,1.0551492E0,-8.469747E-1,-4.9488027E-2,1.754131E-2,4.6710752E-2,1.0562482E-2,4.685409E-2,-5.140025E-2,1.11881986E-4],"split_indices":[0,1,0,0,0,0,0,0,0,0,0,0,0,0,0],"split_type":[0,0,0,0,0,0,0,0,0,0,0,0,0,0,0],"sum_hessian":[3.0867043E1,6.7989264E0,2.4068117E1,5.0974283E0,1.7014978E0,1.868995E1,5.378165E0,4.2568436E0,1.4433107E1,2.9850788E0,2.3930862E0,2.5485768E0,1.7082667E0,1.7799978E0,1.265311E1],"tree_param":{"num_deleted":"0","num_feature":"3","num_nodes":"15","size_leaf_vector":"1"}},{"base_weights":[-4.723966E-10,-3.1196076E-1,9.810122E-2,-3.785684E-1,-1.0406648E-1,1.0395535E-2,3.542331E-1,-1.1008468E-2,-4.208864E-2,1.4659228E-2,-3.0750483E-2,3.1015188E-1,-9.099107E-2,1.744558E-2,4.6032812E-2,1.1401735E-2,4.5436643E-2,-4.9026717E-2,-6.6141697E-4],"categories":[],"categories_nodes":[],"categories_segments":[],"categories_sizes":[],"default_left":[0,0,0,0,0,0,0,0,0,0,0,0,0,0,0,0,0,0,0],"id":20,"left_children":[1,3,5,7,9,11,13,-1,-1,-1,-1,15,17,-1,-1,-1,-1,-1,-1],"loss_changes":[9.9596024E-1,6.8413794E-2,5.524899E-1,1.6352892E-2,2.1173923E-1,6.200334E-1,3.957081E-2,0E0,0E0,0E0,0E0,9.382331E-2,5.1303655E-1,0E0,0E0,0E0,0E0,0E0,0E0],"parents":[2147483647,0,0,1,1,2,2,3,3,4,4,5,5,6,6,11,11,12,12],"right_children":[2,4,6,8,10,12,14,-1,-1,-1,-1,16,18,-1,-1,-1,-1,-1,-1],"split_conditions":[-9.9692947E-1,-6.583984E-1,9.8377246E-1,-1.5879492E0,-4.5153737E-1,-2.4194287E-1,1.0551492E0,-1.1008468E-2,-4.208864E-2,1.4659228E-2,-3.0750483E-2,-8.469747E-1,-4.9488027E-2,1.744558E-2,4.6032812E-2,1.1401735E-2,4.5436643E-2,-4.9026717E-2,-6.6141697E-4],"split_indices":[0,1,0,1,1,0,0,0,0,0,0,0,0,0,0,0,0,0,0],"split_type":[0,0,0,0,0,0,0,0,0,0,0,0,0,0,0,0,0,0,0],"sum_hessian":[3.054375E1,6.785608E0,2.3758142E1,4.517327E0,2.2682807E0,1.8473099E1,5.285045E0,1.1054214E0,3.4119055E0,1.1413889E0,1.126892E0,4.148545E0,1.43245535E1,2.9428096E0,2.3422353E0,2.5165703E0,1.6319743E0,1.6598082E0,1.2664745E1],"tree_param":{"num_deleted":"0","num_feature":"3","num_nodes":"19","size_leaf_vector":"1"}},{"base_weights":[-7.1601985E-10,-3.0785972E-1,9.673875E-2,-3.627306E-2,-6.918137E-3,1.05696665E-2,3.5007706E-1,3.007081E-1,-9.130946E-2,1.7293474E-2,4.536935E-2,7.4026245E-3,3.6427602E-2,1.5387261E-2,-2.383565E-2],"categories":[],"categories_nodes":[],"categories_segments":[],"categories_sizes":[],"default_left":[0,0,0,0,0,0,0,0,0,0,0,0,0,0,0],"id":21,"left_children":[1,3,5,-1,-1,7,9,11,13,-1,-1,-1,-1,-1,-1],"loss_changes":[9.594751E-1,7.5787246E-2,5.3143233E-1,0E0,0E0,5.986302E-1,3.516817E-2,4.8752546E-2,5.799427E-1,0E0,0E0,0E0,0E0,0E0,0E0],"parents":[2147483647,0,0,1,1,2,2,5,5,6,6,7,7,8,8],"right_children":[2,4,6,-1,-1,8,10,12,14,-1,-1,-1,-1,-1,-1],"split_conditions":[-9.9692947E-1,-5.6074035E-1,9.8377246E-1,-3.627306E-2,-6.918137E-3,-3.8424826E-1,1.0551492E0,-1.3755116E0,-7.569378E-1,1.7293474E-2,4.536935E-2,7.4026245E-3,3.6427602E-2,1.5387261E-2,-2.383565E-2],"split_indices":[0,1,0,0,0,1,0,1,2,0,0,0,0,0,0],"split_type":[0,0,0,0,0,0,0,0,0,0,0,0,0,0,0],"sum_hessian":[3.021665E1,6.702942E0,2.3513708E1,5.027419E0,1.6755228E0,1.832311E1,5.1905985E0,4.2546906E0,1.4068419E1,2.900648E0,2.2899506E0,1.405879E0,2.8488116E0,5.2568607E0,8.811559E0],"tree_param":{"num_deleted":"0","num_feature":"3","num_nodes":"15","size_leaf_vector":"1"}},{"base_weights":[1.7469562E-9,-8.3907984E-2,3.4964573E-1,-3.4636986E-1,-2.2453838E-3,4.5937505E-2,1.8655549E-1,-1.0738375E-2,-3.762914E-1,1.358183E-1,-1.867645E-1,-1.4217588E-2,4.3240428E-2,-4.494467E-2,-1.5356523E-2,3.361222E-3,5.182003E-2,7.766828E-3,-2.6316393E-2],"categories":[],"categories_nodes":[],"categories_segments":[],"categories_sizes":[],"default_left":[0,0,0,0,0,0,0,0,0,0,0,0,0,0,0,0,0,0,0],"id":22,"left_children":[1,3,5,7,9,-1,11,-1,13,15,17,-1,-1,-1,-1,-1,-1,-1,-1],"loss_changes":[9.3648493E-1,5.509745E-1,2.4856508E-2,3.22932E-3,5.511874E-1,0E0,3.983699E-1,0E0,1.2839973E-2,4.6662414E-1,2.0741376E-1,0E0,0E0,0E0,0E0,0E0,0E0,0E0,0E0],"parents":[2147483647,0,0,1,1,2,2,3,3,4,4,6,6,8,8,9,9,10,10],"right_children":[2,4,6,8,10,-1,12,-1,14,16,18,-1,-1,-1,-1,-1,-1,-1,-1],"split_conditions":[9.8377246E-1,-1.059162E0,1.2584628E0,-1.5879492E0,1.925195E-1,4.5937505E-2,1.3880545E0,-1.0738375E-2,-1.2169055E0,9.787896E-2,-2.9242244E-2,-1.4217588E-2,4.3240428E-2,-4.494467E-2,-1.5356523E-2,3.361222E-3,5.182003E-2,7.766828E-3,-2.6316393E-2],"split_indices":[0,0,1,1,1,0,1,0,0,1,0,0,0,0,0,0,0,0,0],"split_type":[0,0,0,0,0,0,0,0,0,0,0,0,0,0,0,0,0,0,0],"sum_hessian":[2.9920471E1,2.474273E1,5.1777406E0,5.1023636E0,1.9640366E1,2.009219E0,3.1685214E0,1.0783467E0,4.0240173E0,1.1385367E1,8.254999E0,1.5361652E0,1.632356E0,2.2628434E0,1.7611737E0,9.842491E0,1.5428765E0,1.846681E0,6.4083176E0],"tree_param":{"num_deleted":"0","num_feature":"3","num_nodes":"19","size_leaf_vector":"1"}},{"base_weights":[3.7763077E-9,-3.018773E-1,9.490268E-2,-3.6634666E-1,-1.011067E-1,1.2164174E-2,3.424974E-1,-1.1578169E-2,-4.0293533E-2,1.4181571E-2,-2.9778004E-2,2.9322404E-1,-8.20634E-2,1.7597863E-2,4.3596372E-2,9.899485E-3,4.393512E-2,2.2105621E-2,-1.9526698E-2],"categories":[],"categories_nodes":[],"categories_segments":[],"categories_sizes":[],"default_left":[0,0,0,0,0,0,0,0,0,0,0,0,0,0,0,0,0,0,0],"id":23,"left_children":[1,3,5,7,9,11,13,-1,-1,-1,-1,15,17,-1,-1,-1,-1,-1,-1],"loss_changes":[9.047684E-1,6.0731113E-2,4.880528E-1,2.2714138E-3,1.9593528E-1,5.2847433E-1,1.637286E-2,0E0,0E0,0E0,0E0,9.844014E-2,5.5943567E-1,0E0,0E0,0E0,0E0,0E0,0E0],"parents":[2147483647,0,0,1,1,2,2,3,3,4,4,5,5,6,6,11,11,12,12],"right_children":[2,4,6,8,10,12,14,-1,-1,-1,-1,16,18,-1,-1,-1,-1,-1,-1],"split_conditions":[-9.9692947E-1,-6.583984E-1,9.8377246E-1,-1.5879492E0,-4.5153737E-1,-2.4194287E-1,1.0551492E0,-1.1578169E-2,-4.0293533E-2,1.4181571E-2,-2.9778004E-2,-8.469747E-1,-1.4990337E0,1.7597863E-2,4.3596372E-2,9.899485E-3,4.393512E-2,2.2105621E-2,-1.9526698E-2],"split_indices":[0,1,0,1,1,0,0,0,0,0,0,0,2,0,0,0,0,0,0],"split_type":[0,0,0,0,0,0,0,0,0,0,0,0,0,0,0,0,0,0,0],"sum_hessian":[2.9581194E1,6.553657E0,2.3027538E1,4.3364716E0,2.2171853E0,1.8046188E1,4.981349E0,1.0831693E0,3.253302E0,1.1167507E0,1.1004347E0,4.0008054E0,1.4045383E1,2.8272133E0,2.1541357E0,2.4378812E0,1.5629243E0,3.5600588E0,1.0485324E1],"tree_param":{"num_deleted":"0","num_feature":"3","num_nodes":"19","size_leaf_vector":"1"}},{"base_weights":[6.8924817E-9,-3.0267736E-1,9.489468E-2,-3.5414573E-2,-7.455268E-3,1.3307379E-2,3.3872825E-1,3.1958222E-1,-7.261788E-2,4.3956514E-2,1.8291382E-1,8.258848E-3,4.025352E-2,1.3774933E-2,-2.1800414E-2,-1.236046E-2,4.1319273E-2],"categories":[],"categories_nodes":[],"categories_segments":[],"categories_sizes":[],"default_left":[0,0,0,0,0,0,0,0,0,0,0,0,0,0,0,0,0],"id":24,"left_children":[1,3,5,-1,-1,7,9,11,13,-1,15,-1,-1,-1,-1,-1,-1],"loss_changes":[8.9807177E-1,6.1222494E-2,4.6904635E-1,0E0,0E0,5.1999E-1,1.2723565E-2,5.1700085E-2,5.0580907E-1,0E0,3.3633584E-1,0E0,0E0,0E0,0E0,0E0,0E0],"parents":[2147483647,0,0,1,1,2,2,5,5,6,6,7,7,8,8,10,10],"right_children":[2,4,6,-1,-1,8,10,12,14,-1,16,-1,-1,-1,-1,-1,-1],"split_conditions":[-9.9692947E-1,-5.6074035E-1,9.8377246E-1,-3.5414573E-2,-7.455268E-3,-5.99908E-1,1.2584628E0,-1.3755116E0,-7.569378E-1,4.3956514E-2,1.3880545E0,8.258848E-3,4.025352E-2,1.3774933E-2,-2.1800414E-2,-1.236046E-2,4.1319273E-2],"split_indices":[0,1,0,0,0,1,1,1,2,0,1,0,0,0,0,0,0],"split_type":[0,0,0,0,0,0,0,0,0,0,0,0,0,0,0,0,0],"sum_hessian":[2.926722E1,6.4630313E0,2.2804188E1,4.822566E0,1.6404651E0,1.7877058E1,4.9271307E0,3.3208401E0,1.4556217E1,1.8856995E0,3.0414314E0,1.3784016E0,1.9424385E0,5.970176E0,8.5860405E0,1.5034571E0,1.5379742E0],"tree_param":{"num_deleted":"0","num_feature":"3","num_nodes":"17","size_leaf_vector":"1"}},{"base_weights":[-6.9624413E-9,-3.000549E-1,9.448746E-2,-3.457197E-2,-8.713619E-3,1.2878594E-2,3.4022074E-2,1.7288855E-1,-1.7153147E-1,2.6949158E-2,-2.2747422E-2,-3.8219497E-2,-5.754097E-3],"categories":[],"categories_nodes":[],"categories_segments":[],"categories_sizes":[],"default_left":[0,0,0,0,0,0,0,0,0,0,0,0,0],"id":25,"left_children":[1,3,5,-1,-1,7,-1,9,11,-1,-1,-1,-1],"loss_changes":[8.7784773E-1,4.1972756E-2,4.6784747E-1,0E0,0E0,5.819332E-1,0E0,4.6814865E-1,1.9886786E-1,0E0,0E0,0E0,0E0],"parents":[2147483647,0,0,1,1,2,2,5,5,7,7,8,8],"right_children":[2,4,6,-1,-1,8,-1,10,12,-1,-1,-1,-1],"split_conditions":[-9.9692947E-1,-5.6074035E-1,9.8377246E-1,-3.457197E-2,-8.713619E-3,1.925195E-1,3.4022074E-2,4.378068E-1,3.7347022E-1,2.6949158E-2,-2.2747422E-2,-3.8219497E-2,-5.754097E-3],"split_indices":[0,1,0,0,0,1,0,0,1,0,0,0,0],"split_type":[0,0,0,0,0,0,0,0,0,0,0,0,0],"sum_hessian":[2.896309E1,6.415234E0,2.2547855E1,4.768759E0,1.6464753E0,1.7716541E1,4.8313146E0,9.519279E0,8.197263E0,7.9322076E0,1.587071E0,2.0520482E0,6.1452146E0],"tree_param":{"num_deleted":"0","num_feature":"3","num_nodes":"13","size_leaf_vector":"1"}},{"base_weights":[-7.4097306E-9,-2.9047096E-1,9.13948E-2,-3.3308372E-1,-6.7526377E-3,1.1589459E-2,3.3102667E-1,-1.0235162E-2,-3.6151737E-1,3.044599E-1,-7.0467435E-2,4.2786676E-2,1.7898022E-1,-4.2989496E-2,-1.4955272E-2,6.616428E-3,3.9252516E-2,1.3596417E-2,-2.11919E-2,-1.1758349E-2,4.024038E-2],"categories":[],"categories_nodes":[],"categories_segments":[],"categories_sizes":[],"default_left":[0,0,0,0,0,0,0,0,0,0,0,0,0,0,0,0,0,0,0,0,0],"id":26,"left_children":[1,3,5,7,-1,9,11,-1,13,15,17,-1,19,-1,-1,-1,-1,-1,-1,-1,-1],"loss_changes":[8.140173E-1,4.722798E-2,4.422078E-1,1.7502308E-3,0E0,4.6684405E-1,8.684576E-3,0E0,6.2028766E-3,6.309435E-2,4.7525418E-1,0E0,3.1051588E-1,0E0,0E0,0E0,0E0,0E0,0E0,0E0,0E0],"parents":[2147483647,0,0,1,1,2,2,3,3,5,5,6,6,8,8,9,9,10,10,12,12],"right_children":[2,4,6,8,-1,10,12,-1,14,16,18,-1,20,-1,-1,-1,-1,-1,-1,-1,-1],"split_conditions":[-9.9692947E-1,-1.059162E0,9.8377246E-1,-1.5879492E0,-6.7526377E-3,-5.99908E-1,1.2584628E0,-1.0235162E-2,-1.2169055E0,-1.3755116E0,-7.569378E-1,4.2786676E-2,1.3880545E0,-4.2989496E-2,-1.4955272E-2,6.616428E-3,3.9252516E-2,1.3596417E-2,-2.11919E-2,-1.1758349E-2,4.024038E-2],"split_indices":[0,0,0,1,0,1,1,0,0,1,2,0,1,0,0,0,0,0,0,0,0],"split_type":[0,0,0,0,0,0,0,0,0,0,0,0,0,0,0,0,0,0,0,0,0],"sum_hessian":[2.8662634E1,6.338719E0,2.2323914E1,4.9068265E0,1.4318926E0,1.7533157E1,4.790757E0,1.0429783E0,3.863848E0,3.244131E0,1.4289026E1,1.8184888E0,2.9722683E0,2.1440542E0,1.7197938E0,1.34797E0,1.8961611E0,5.825785E0,8.463241E0,1.4806418E0,1.4916265E0],"tree_param":{"num_deleted":"0","num_feature":"3","num_nodes":"21","size_leaf_vector":"1"}},{"base_weights":[-2.2826538E-9,-3.396475E-2,8.052811E-2,4.238861E-3,3.3231195E-2,1.2508975E-1,-1.540212E-1,2.4685622E-3,4.9670584E-2,8.198454E-3,-2.2793546E-2],"categories":[],"categories_nodes":[],"categories_segments":[],"categories_sizes":[],"default_left":[0,0,0,0,0,0,0,0,0,0,0],"id":27,"left_children":[1,-1,3,5,-1,7,9,-1,-1,-1,-1],"loss_changes":[8.3081895E-1,0E0,4.7024065E-1,3.990575E-1,0E0,4.284392E-1,1.7648996E-1,0E0,0E0,0E0,0E0],"parents":[2147483647,0,0,2,2,3,3,5,5,6,6],"right_children":[2,-1,4,6,-1,8,10,-1,-1,-1,-1],"split_conditions":[-1.059162E0,-3.396475E-2,9.8377246E-1,1.925195E-1,3.3231195E-2,9.787896E-2,-2.9242244E-2,2.4685622E-3,4.9670584E-2,8.198454E-3,-2.2793546E-2],"split_indices":[0,0,0,1,0,1,0,0,0,0,0],"split_type":[0,0,0,0,0,0,0,0,0,0,0],"sum_hessian":[2.8375996E1,4.821665E0,2.355433E1,1.885745E1,4.696879E0,1.0811298E1,8.046152E0,9.351197E0,1.4601011E0,1.8929243E0,6.1532283E0],"tree_param":{"num_deleted":"0","num_feature":"3","num_nodes":"11","size_leaf_vector":"1"}},{"base_weights":[2.1114455E-9,-2.8369784E-1,8.985198E-2,-3.422215E-1,-9.631168E-2,1.4557288E-2,3.185168E-1,-1.0127435E-2,-3.787916E-1,1.3822806E-2,-2.8435552E-2,2.9714096E-1,-6.441662E-2,1.6218204E-2,4.0780984E-2,-4.5933243E-2,-1.4510329E-2,7.174057E-3,3.7734654E-2,1.5602169E-2,-2.186943E-2],"categories":[],"categories_nodes":[],"categories_segments":[],"categories_sizes":[],"default_left":[0,0,0,0,0,0,0,0,0,0,0,0,0,0,0,0,0,0,0,0,0],"id":28,"left_children":[1,3,5,7,9,11,13,-1,15,-1,-1,17,19,-1,-1,-1,-1,-1,-1,-1,-1],"loss_changes":[7.6756597E-1,4.646927E-2,3.890976E-1,6.81895E-3,1.7670561E-1,4.2645788E-1,1.2270987E-2,0E0,1.0270536E-2,0E0,0E0,4.8221976E-2,5.472046E-1,0E0,0E0,0E0,0E0,0E0,0E0,0E0,0E0],"parents":[2147483647,0,0,1,1,2,2,3,3,4,4,5,5,6,6,8,8,11,11,12,12],"right_children":[2,4,6,8,10,12,14,-1,16,-1,-1,18,20,-1,-1,-1,-1,-1,-1,-1,-1],"split_conditions":[-9.9692947E-1,-6.583984E-1,9.8377246E-1,-1.5879492E0,-4.5153737E-1,-5.99908E-1,1.0551492E0,-1.0127435E-2,-1.2169055E0,1.3822806E-2,-2.8435552E-2,-1.3755116E0,-7.569378E-1,1.6218204E-2,4.0780984E-2,-4.5933243E-2,-1.4510329E-2,7.174057E-3,3.7734654E-2,1.5602169E-2,-2.186943E-2],"split_indices":[0,1,0,1,1,1,0,0,0,0,0,1,2,0,0,0,0,0,0,0,0],"split_type":[0,0,0,0,0,0,0,0,0,0,0,0,0,0,0,0,0,0,0,0,0],"sum_hessian":[2.8111475E1,6.2428775E0,2.1868597E1,4.127503E0,2.1153746E0,1.7251642E1,4.6169543E0,1.0406117E0,3.0868912E0,1.0591962E0,1.0561783E0,3.164814E0,1.4086828E1,2.7022061E0,1.9147484E0,1.577595E0,1.5092962E0,1.3277941E0,1.8370198E0,5.795161E0,8.291668E0],"tree_param":{"num_deleted":"0","num_feature":"3","num_nodes":"21","size_leaf_vector":"1"}},{"base_weights":[-5.55567E-9,-2.907305E-1,9.122222E-2,-3.3785686E-2,-7.640911E-3,1.596538E-2,3.1833708E-1,2.6510996E-1,-6.6152945E-2,4.1353833E-2,1.6899674E-1,7.7932216E-3,4.0908378E-2,-4.6449333E-2,1.9928727E-3,-1.1903225E-2,3.891661E-2],"categories":[],"categories_nodes":[],"categories_segments":[],"categories_sizes":[],"default_left":[0,0,0,0,0,0,0,0,0,0,0,0,0,0,0,0,0],"id":29,"left_children":[1,3,5,-1,-1,7,9,11,13,-1,15,-1,-1,-1,-1,-1,-1],"loss_changes":[7.9120755E-1,4.6149373E-2,3.8304263E-1,0E0,0E0,3.880377E-1,9.716213E-3,9.4477475E-2,5.0372404E-1,0E0,2.917897E-1,0E0,0E0,0E0,0E0,0E0,0E0],"parents":[2147483647,0,0,1,1,2,2,5,5,6,6,7,7,8,8,10,10],"right_children":[2,4,6,-1,-1,8,10,12,14,-1,16,-1,-1,-1,-1,-1,-1],"split_conditions":[-9.9692947E-1,-5.6074035E-1,9.8377246E-1,-3.3785686E-2,-7.640911E-3,-2.4194287E-1,1.2584628E0,-8.469747E-1,-4.9488027E-2,4.1353833E-2,1.3880545E0,7.7932216E-3,4.0908378E-2,-4.6449333E-2,1.9928727E-3,-1.1903225E-2,3.891661E-2],"split_indices":[0,1,0,0,0,0,1,0,0,0,1,0,0,0,0,0,0],"split_type":[0,0,0,0,0,0,0,0,0,0,0,0,0,0,0,0,0],"sum_hessian":[2.7833153E1,6.1250873E0,2.1708065E1,4.548526E0,1.5765615E0,1.7109089E1,4.598976E0,3.688847E0,1.3420241E1,1.7281911E0,2.8707848E0,2.2738938E0,1.4149532E0,1.6036124E0,1.1816629E1,1.4427357E0,1.4280491E0],"tree_param":{"num_deleted":"0","num_feature":"3","num_nodes":"17","size_leaf_vector":"1"}},{"base_weights":[6.5267334E-9,-2.82712E-1,8.947652E-2,-3.231689E-2,-7.014477E-3,1.5025582E-2,3.179955E-2,1.5162802E-1,-1.4229001E-1,2.469487E-2,-2.3164025E-2,6.2208683E-3,-2.4295546E-2],"categories":[],"categories_nodes":[],"categories_segments":[],"categories_sizes":[],"default_left":[0,0,0,0,0,0,0,0,0,0,0,0,0],"id":30,"left_children":[1,3,5,-1,-1,7,-1,9,11,-1,-1,-1,-1],"loss_changes":[7.472136E-1,3.8401127E-2,3.7695983E-1,0E0,0E0,4.0781587E-1,0E0,4.2633942E-1,1.9769534E-1,0E0,0E0,0E0,0E0],"parents":[2147483647,0,0,1,1,2,2,5,5,7,7,8,8],"right_children":[2,4,6,-1,-1,8,-1,10,12,-1,-1,-1,-1],"split_conditions":[-9.9692947E-1,-1.059162E0,9.8377246E-1,-3.231689E-2,-7.014477E-3,1.925195E-1,3.179955E-2,4.378068E-1,-1.4990337E0,2.469487E-2,-2.3164025E-2,6.2208683E-3,-2.4295546E-2],"split_indices":[0,0,0,0,0,1,0,0,2,0,0,0,0],"split_type":[0,0,0,0,0,0,0,0,0,0,0,0,0],"sum_hessian":[2.7538704E1,6.1012945E0,2.143741E1,4.688619E0,1.4126754E0,1.69733E1,4.4641085E0,9.104077E0,7.8692236E0,7.5756526E0,1.5284251E0,2.7218654E0,5.147358E0],"tree_param":{"num_deleted":"0","num_feature":"3","num_nodes":"13","size_leaf_vector":"1"}},{"base_weights":[1.1202406E-9,-2.7722585E-1,8.770803E-2,-3.2100776E-1,-7.318798E-3,1.5048652E-2,3.0947685E-1,-9.490016E-3,-3.5150695E-1,2.840012E-1,-6.0114898E-2,4.00993E-2,1.6362956E-1,-4.481126E-2,-1.555181E-2,6.296918E-3,3.6440734E-2,1.2815433E-2,-1.9200472E-2,-1.1281798E-2,3.7682354E-2],"categories":[],"categories_nodes":[],"categories_segments":[],"categories_sizes":[],"default_left":[0,0,0,0,0,0,0,0,0,0,0,0,0,0,0,0,0,0,0,0,0],"id":31,"left_children":[1,3,5,7,-1,9,11,-1,13,15,17,-1,19,-1,-1,-1,-1,-1,-1,-1,-1],"loss_changes":[7.1160626E-1,3.9340436E-2,3.535863E-1,4.541874E-3,0E0,3.7684593E-1,6.934464E-3,0E0,1.4996767E-2,4.92447E-2,3.9048713E-1,0E0,2.6558924E-1,0E0,0E0,0E0,0E0,0E0,0E0,0E0,0E0],"parents":[2147483647,0,0,1,1,2,2,3,3,5,5,6,6,8,8,9,9,10,10,12,12],"right_children":[2,4,6,8,-1,10,12,-1,14,16,18,-1,20,-1,-1,-1,-1,-1,-1,-1,-1],"split_conditions":[-9.9692947E-1,-5.6074035E-1,9.8377246E-1,-1.5879492E0,-7.318798E-3,-5.99908E-1,1.2584628E0,-9.490016E-3,-1.2766318E0,-1.3755116E0,-7.569378E-1,4.00993E-2,1.3880545E0,-4.481126E-2,-1.555181E-2,6.296918E-3,3.6440734E-2,1.2815433E-2,-1.9200472E-2,-1.1281798E-2,3.7682354E-2],"split_indices":[0,1,0,1,0,1,1,0,1,1,2,0,1,0,0,0,0,0,0,0,0],"split_type":[0,0,0,0,0,0,0,0,0,0,0,0,0,0,0,0,0,0,0,0,0],"sum_hessian":[2.726622E1,6.0338287E0,2.1232391E1,4.4958467E0,1.537982E0,1.6796965E1,4.4354277E0,1.0230399E0,3.472807E0,3.061995E0,1.3734969E1,1.6504202E0,2.7850072E0,1.4645103E0,2.0082967E0,1.2923994E0,1.7695956E0,5.6698008E0,8.065168E0,1.4176143E0,1.3673929E0],"tree_param":{"num_deleted":"0","num_feature":"3","num_nodes":"21","size_leaf_vector":"1"}},{"base_weights":[5.055127E-9,-3.2564443E-2,7.7506594E-2,8.059817E-3,3.1084E-2,1.161742E-1,-1.3345437E-1,1.6854992E-3,4.7997363E-2,-3.397077E-2,-2.6122618E-3],"categories":[],"categories_nodes":[],"categories_segments":[],"categories_sizes":[],"default_left":[0,0,0,0,0,0,0,0,0,0,0],"id":32,"left_children":[1,-1,3,5,-1,7,9,-1,-1,-1,-1],"loss_changes":[7.320353E-1,0E0,3.7711948E-1,3.0743313E-1,0E0,4.020632E-1,1.8437004E-1,0E0,0E0,0E0,0E0],"parents":[2147483647,0,0,2,2,3,3,5,5,6,6],"right_children":[2,-1,4,6,-1,8,10,-1,-1,-1,-1],"split_conditions":[-1.059162E0,-3.2564443E-2,9.8377246E-1,1.925195E-1,3.1084E-2,9.787896E-2,3.7347022E-1,1.6854992E-3,4.7997363E-2,-3.397077E-2,-2.6122618E-3],"split_indices":[0,0,0,1,0,1,1,0,0,0,0],"split_type":[0,0,0,0,0,0,0,0,0,0,0],"sum_hessian":[2.7003456E1,4.575973E0,2.2427485E1,1.8080688E1,4.346795E0,1.0351436E1,7.729254E0,8.953431E0,1.3980047E0,1.904486E0,5.8247676E0],"tree_param":{"num_deleted":"0","num_feature":"3","num_nodes":"11","size_leaf_vector":"1"}},{"base_weights":[-2.6824667E-10,-2.7524602E-1,8.723483E-2,-3.1958306E-1,-7.046308E-3,1.6949017E-2,3.0324072E-1,-9.770691E-3,-3.486232E-1,2.788449E-1,-5.63427E-2,3.90887E-2,1.6052407E-1,-4.3761205E-2,-1.5878284E-2,6.711283E-3,3.5327014E-2,1.3633742E-2,-1.929369E-2,-1.07392315E-2,3.6732085E-2],"categories":[],"categories_nodes":[],"categories_segments":[],"categories_sizes":[],"default_left":[0,0,0,0,0,0,0,0,0,0,0,0,0,0,0,0,0,0,0,0,0],"id":33,"left_children":[1,3,5,7,-1,9,11,-1,13,15,17,-1,19,-1,-1,-1,-1,-1,-1,-1,-1],"loss_changes":[6.909203E-1,4.0356815E-2,3.265915E-1,7.9351664E-4,0E0,3.5248345E-1,3.6122203E-3,0E0,4.749E-3,3.939417E-2,4.0899658E-1,0E0,2.4528852E-1,0E0,0E0,0E0,0E0,0E0,0E0,0E0,0E0],"parents":[2147483647,0,0,1,1,2,2,3,3,5,5,6,6,8,8,9,9,10,10,12,12],"right_children":[2,4,6,8,-1,10,12,-1,14,16,18,-1,20,-1,-1,-1,-1,-1,-1,-1,-1],"split_conditions":[-9.9692947E-1,-5.6074035E-1,9.8377246E-1,-1.5879492E0,-7.046308E-3,-5.99908E-1,1.2584628E0,-9.770691E-3,-1.2766318E0,-1.3755116E0,-7.569378E-1,3.90887E-2,1.3880545E0,-4.3761205E-2,-1.5878284E-2,6.711283E-3,3.5327014E-2,1.3633742E-2,-1.929369E-2,-1.07392315E-2,3.6732085E-2],"split_indices":[0,1,0,1,0,1,1,0,1,1,2,0,1,0,0,0,0,0,0,0,0],"split_type":[0,0,0,0,0,0,0,0,0,0,0,0,0,0,0,0,0,0,0,0,0],"sum_hessian":[2.6775108E1,5.9250326E0,2.0850077E1,4.409704E0,1.5153283E0,1.6544992E1,4.3050833E0,1.0154997E0,3.3942046E0,3.0044599E0,1.3540532E1,1.5898249E0,2.7152586E0,1.4223233E0,1.9718812E0,1.2760313E0,1.7284286E0,5.6178536E0,7.922679E0,1.3922325E0,1.323026E0],"tree_param":{"num_deleted":"0","num_feature":"3","num_nodes":"21","size_leaf_vector":"1"}},{"base_weights":[-9.206679E-9,-2.8025994E-1,8.852517E-2,-3.2260172E-2,-6.2853578E-3,1.8738529E-2,3.0472914E-2,2.7140728E-1,-5.163718E-2,6.9544497E-3,3.406441E-2,1.1434462E-2,-1.6865319E-2],"categories":[],"categories_nodes":[],"categories_segments":[],"categories_sizes":[],"default_left":[0,0,0,0,0,0,0,0,0,0,0,0,0],"id":34,"left_children":[1,3,5,-1,-1,7,-1,9,11,-1,-1,-1,-1],"loss_changes":[7.0745337E-1,4.2732716E-2,3.212491E-1,0E0,0E0,3.2426378E-1,0E0,3.1668007E-2,3.0065453E-1,0E0,0E0,0E0,0E0],"parents":[2147483647,0,0,1,1,2,2,5,5,7,7,8,8],"right_children":[2,4,6,-1,-1,8,-1,10,12,-1,-1,-1,-1],"split_conditions":[-9.9692947E-1,-1.059162E0,9.8377246E-1,-3.2260172E-2,-6.2853578E-3,-5.99908E-1,3.0472914E-2,-1.3755116E0,-7.569378E-1,6.9544497E-3,3.406441E-2,1.1434462E-2,-1.6865319E-2],"split_indices":[0,0,0,0,0,1,0,1,2,0,0,0,0],"split_type":[0,0,0,0,0,0,0,0,0,0,0,0,0],"sum_hessian":[2.651478E1,5.844843E0,2.0669937E1,4.4870796E0,1.3577629E0,1.644762E1,4.2223167E0,2.9608352E0,1.3486785E1,1.2680949E0,1.6927403E0,5.586054E0,7.900731E0],"tree_param":{"num_deleted":"0","num_feature":"3","num_nodes":"13","size_leaf_vector":"1"}},{"base_weights":[-3.5484946E-9,-2.7592826E-1,8.7562E-2,-3.1988807E-2,-7.205799E-3,1.8793019E-2,2.9899353E-1,1.4723957E-1,-1.3012257E-1,3.8400646E-2,1.5814243E-1,2.3921609E-2,-2.2744063E-2,9.204068E-3,-2.0393496E-2,-1.0622897E-2,3.6160972E-2],"categories":[],"categories_nodes":[],"categories_segments":[],"categories_sizes":[],"default_left":[0,0,0,0,0,0,0,0,0,0,0,0,0,0,0,0,0],"id":35,"left_children":[1,3,5,-1,-1,7,9,11,13,-1,15,-1,-1,-1,-1,-1,-1],"loss_changes":[6.836402E-1,3.8036406E-2,3.0668783E-1,0E0,0E0,3.495846E-1,1.5922189E-3,3.9020061E-1,1.5866157E-1,0E0,2.3523986E-1,0E0,0E0,0E0,0E0,0E0,0E0],"parents":[2147483647,0,0,1,1,2,2,5,5,6,6,7,7,8,8,10,10],"right_children":[2,4,6,-1,-1,8,10,12,14,-1,16,-1,-1,-1,-1,-1,-1],"split_conditions":[-9.9692947E-1,-5.6074035E-1,9.8377246E-1,-3.1988807E-2,-7.205799E-3,1.925195E-1,1.2584628E0,4.378068E-1,-2.9242244E-2,3.8400646E-2,1.3880545E0,2.3921609E-2,-2.2744063E-2,9.204068E-3,-2.0393496E-2,-1.0622897E-2,3.6160972E-2],"split_indices":[0,1,0,0,0,1,1,0,0,0,1,0,0,0,0,0,0],"split_type":[0,0,0,0,0,0,0,0,0,0,0,0,0,0,0,0,0],"sum_hessian":[2.6295391E1,5.816142E0,2.0479248E1,4.316347E0,1.4997947E0,1.6274714E1,4.204534E0,8.743929E0,7.5307856E0,1.545434E0,2.6591E0,7.310815E0,1.4331138E0,1.8164907E0,5.714295E0,1.3643126E0,1.2947874E0],"tree_param":{"num_deleted":"0","num_feature":"3","num_nodes":"17","size_leaf_vector":"1"}},{"base_weights":[2.414174E-9,-3.0549431E-2,7.3733136E-2,8.831192E-3,2.956055E-2,1.0130866E-1,-1.15275E-1,1.9112825E-3,4.419512E-2,2.9141951E-2,-3.2225277E-2],"categories":[],"categories_nodes":[],"categories_segments":[],"categories_sizes":[],"default_left":[0,0,0,0,0,0,0,0,0,0,0],"id":36,"left_children":[1,-1,3,5,-1,7,9,-1,-1,-1,-1],"loss_changes":[6.3079363E-1,0E0,3.222416E-1,2.2382554E-1,0E0,3.0302358E-1,7.9765534E-1,0E0,0E0,0E0,0E0],"parents":[2147483647,0,0,2,2,3,3,5,5,6,6],"right_children":[2,-1,4,6,-1,8,10,-1,-1,-1,-1],"split_conditions":[-1.059162E0,-3.0549431E-2,9.8377246E-1,2.1529278E-1,2.956055E-2,6.340976E-2,-1.4990337E0,1.9112825E-3,4.419512E-2,2.9141951E-2,-3.2225277E-2],"split_indices":[0,0,0,0,0,0,2,0,0,0,0],"split_type":[0,0,0,0,0,0,0,0,0,0,0],"sum_hessian":[2.6004093E1,4.4448314E0,2.1559261E1,1.7484509E1,4.0747533E0,1.01241865E1,7.360322E0,9.006949E0,1.1172369E0,2.3448696E0,5.0154524E0],"tree_param":{"num_deleted":"0","num_feature":"3","num_nodes":"11","size_leaf_vector":"1"}},{"base_weights":[6.4076873E-9,-2.5883138E-1,8.296699E-2,-4.1289788E-2,-1.5286252E-1,1.691808E-2,2.880662E-1,-3.0245429E-2,-5.314764E-2,2.723409E-1,-5.542622E-2,3.7277203E-2,1.487867E-1,-1.2047132E-2,2.5052298E-3,6.467423E-3,3.4414668E-2,1.29637215E-2,-1.8660331E-2,-1.0897443E-2,3.5050754E-2],"categories":[],"categories_nodes":[],"categories_segments":[],"categories_sizes":[],"default_left":[0,0,0,0,0,0,0,0,0,0,0,0,0,0,0,0,0,0,0,0,0],"id":37,"left_children":[1,3,5,-1,7,9,11,-1,13,15,17,-1,19,-1,-1,-1,-1,-1,-1,-1,-1],"loss_changes":[5.9577453E-1,4.682988E-2,2.797274E-1,0E0,6.712715E-2,3.2837483E-1,4.176587E-3,0E0,2.7025439E-2,3.606412E-2,3.6509317E-1,0E0,2.241345E-1,0E0,0E0,0E0,0E0,0E0,0E0,0E0,0E0],"parents":[2147483647,0,0,1,1,2,2,4,4,5,5,6,6,8,8,9,9,10,10,12,12],"right_children":[2,4,6,-1,8,10,12,-1,14,16,18,-1,20,-1,-1,-1,-1,-1,-1,-1,-1],"split_conditions":[-9.9692947E-1,-1.4477655E0,9.8377246E-1,-4.1289788E-2,6.34492E-1,-5.99908E-1,1.2584628E0,-3.0245429E-2,-1.2169055E0,-1.3755116E0,-7.569378E-1,3.7277203E-2,1.3880545E0,-1.2047132E-2,2.5052298E-3,6.467423E-3,3.4414668E-2,1.29637215E-2,-1.8660331E-2,-1.0897443E-2,3.5050754E-2],"split_indices":[0,0,0,0,2,1,1,0,0,1,2,0,1,0,0,0,0,0,0,0,0],"split_type":[0,0,0,0,0,0,0,0,0,0,0,0,0,0,0,0,0,0,0,0,0],"sum_hessian":[2.57434E1,5.734339E0,2.0009062E1,1.156506E0,4.577833E0,1.5953863E1,4.055198E0,1.0177773E0,3.5600562E0,2.9111357E0,1.3042727E1,1.479175E0,2.576023E0,1.6225874E0,1.9374685E0,1.2363163E0,1.6748192E0,5.4150143E0,7.627713E0,1.3327703E0,1.2432529E0],"tree_param":{"num_deleted":"0","num_feature":"3","num_nodes":"21","size_leaf_vector":"1"}},{"base_weights":[2.3559508E-9,-2.6530147E-1,8.4498696E-2,-3.2028202E-2,-8.858579E-3,1.8986246E-2,2.896299E-2,2.6548982E-1,-5.051183E-2,6.5979618E-3,3.330962E-2,1.0978597E-2,-1.6327618E-2],"categories":[],"categories_nodes":[],"categories_segments":[],"categories_sizes":[],"default_left":[0,0,0,0,0,0,0,0,0,0,0,0,0],"id":38,"left_children":[1,3,5,-1,-1,7,-1,9,11,-1,-1,-1,-1],"loss_changes":[6.161604E-1,3.613624E-2,2.7464378E-1,0E0,0E0,3.024222E-1,0E0,3.0222893E-2,2.709891E-1,0E0,0E0,0E0,0E0],"parents":[2147483647,0,0,1,1,2,2,5,5,7,7,8,8],"right_children":[2,4,6,-1,-1,8,-1,10,12,-1,-1,-1,-1],"split_conditions":[-9.9692947E-1,-6.583984E-1,9.8377246E-1,-3.2028202E-2,-8.858579E-3,-5.99908E-1,2.896299E-2,-1.3755116E0,-7.569378E-1,6.5979618E-3,3.330962E-2,1.0978597E-2,-1.6327618E-2],"split_indices":[0,1,0,0,0,1,0,1,2,0,0,0,0],"split_type":[0,0,0,0,0,0,0,0,0,0,0,0,0],"sum_hessian":[2.5485533E1,5.6394815E0,1.9846052E1,3.681624E0,1.9578577E0,1.5870174E1,3.9758773E0,2.8700953E0,1.3000079E1,1.2265155E0,1.6435797E0,5.379449E0,7.6206307E0],"tree_param":{"num_deleted":"0","num_feature":"3","num_nodes":"13","size_leaf_vector":"1"}},{"base_weights":[1.7725084E-9,-3.0384017E-2,7.363408E-2,1.1402661E-2,2.846102E-1,1.0935189E-1,-1.170091E-1,3.6641285E-2,1.4708497E-1,1.375103E-3,4.527325E-2,-2.7020548E-2,1.0475399E-3,-1.0749829E-2,3.452348E-2],"categories":[],"categories_nodes":[],"categories_segments":[],"categories_sizes":[],"default_left":[0,0,0,0,0,0,0,0,0,0,0,0,0,0,0],"id":39,"left_children":[1,-1,3,5,7,9,11,-1,13,-1,-1,-1,-1,-1,-1],"loss_changes":[6.101409E-1,0E0,2.8496337E-1,2.3910934E-1,1.8876791E-3,3.4582207E-1,1.6432396E-1,0E0,2.1467799E-1,0E0,0E0,0E0,0E0,0E0,0E0],"parents":[2147483647,0,0,2,2,3,3,4,4,5,5,6,6,8,8],"right_children":[2,-1,4,6,8,10,12,-1,14,-1,-1,-1,-1,-1,-1],"split_conditions":[-1.059162E0,-3.0384017E-2,9.8377246E-1,1.925195E-1,1.2584628E0,9.787896E-2,5.301641E-1,3.6641285E-2,1.3880545E0,1.375103E-3,4.527325E-2,-2.7020548E-2,1.0475399E-3,-1.0749829E-2,3.452348E-2],"split_indices":[0,0,0,1,1,1,1,0,1,0,0,0,0,0,0],"split_type":[0,0,0,0,0,0,0,0,0,0,0,0,0,0,0],"sum_hessian":[2.5271317E1,4.3198285E0,2.0951488E1,1.69931E1,3.9583898E0,9.724174E0,7.268925E0,1.4384445E0,2.5199454E0,8.420001E0,1.304173E0,2.793045E0,4.47588E0,1.303148E0,1.2167972E0],"tree_param":{"num_deleted":"0","num_feature":"3","num_nodes":"15","size_leaf_vector":"1"}},{"base_weights":[1.8954665E-9,-2.5678504E-1,8.241622E-2,-3.9942898E-2,-1.5446743E-1,1.8587304E-2,2.8419305E-2,-4.7432287E-3,-1.9196768E-1,2.6145115E-1,-4.991304E-2,-2.6773756E-2,2.551215E-4,6.7178435E-3,3.255431E-2,1.1717588E-2,-1.6875377E-2],"categories":[],"categories_nodes":[],"categories_segments":[],"categories_sizes":[],"default_left":[0,0,0,0,0,0,0,0,0,0,0,0,0,0,0,0,0],"id":40,"left_children":[1,3,5,-1,7,9,-1,-1,11,13,15,-1,-1,-1,-1,-1,-1],"loss_changes":[5.7227826E-1,3.4193546E-2,2.5836647E-1,0E0,1.2796059E-2,2.895683E-1,0E0,0E0,5.54021E-2,2.5657594E-2,2.9388747E-1,0E0,0E0,0E0,0E0,0E0,0E0],"parents":[2147483647,0,0,1,1,2,2,4,4,5,5,8,8,9,9,10,10],"right_children":[2,4,6,-1,8,10,-1,-1,12,14,16,-1,-1,-1,-1,-1,-1],"split_conditions":[-9.9692947E-1,-1.4477655E0,9.8377246E-1,-3.9942898E-2,-1.2218862E0,-5.99908E-1,2.8419305E-2,-4.7432287E-3,-1.059162E0,-1.3755116E0,-7.569378E-1,-2.6773756E-2,2.551215E-4,6.7178435E-3,3.255431E-2,1.1717588E-2,-1.6875377E-2],"split_indices":[0,0,0,0,1,1,0,0,0,1,2,0,0,0,0,0,0],"split_type":[0,0,0,0,0,0,0,0,0,0,0,0,0,0,0,0,0],"sum_hessian":[2.5041134E1,5.5702233E0,1.9470911E1,1.1137277E0,4.4564953E0,1.5621434E1,3.849476E0,1.7438786E0,2.712617E0,2.8170319E0,1.2804402E1,1.6813E0,1.0313169E0,1.206897E0,1.610135E0,5.3277073E0,7.476695E0],"tree_param":{"num_deleted":"0","num_feature":"3","num_nodes":"17","size_leaf_vector":"1"}},{"base_weights":[-7.822153E-9,-2.6005352E-1,8.318988E-2,-3.152897E-2,-8.287503E-3,2.064151E-2,2.794686E-2,2.546621E-1,-4.53507E-2,6.8423846E-3,3.1469125E-2,1.355946E-2,-1.2825811E-2],"categories":[],"categories_nodes":[],"categories_segments":[],"categories_sizes":[],"default_left":[0,0,0,0,0,0,0,0,0,0,0,0,0],"id":41,"left_children":[1,3,5,-1,-1,7,-1,9,11,-1,-1,-1,-1],"loss_changes":[5.8057594E-1,3.752476E-2,2.4384914E-1,0E0,0E0,2.663446E-1,0E0,2.0729855E-2,2.2318853E-1,0E0,0E0,0E0,0E0],"parents":[2147483647,0,0,1,1,2,2,5,5,7,7,8,8],"right_children":[2,4,6,-1,-1,8,-1,10,12,-1,-1,-1,-1],"split_conditions":[-9.9692947E-1,-6.583984E-1,9.8377246E-1,-3.152897E-2,-8.287503E-3,-5.99908E-1,2.794686E-2,-1.3755116E0,-1.4990337E0,6.8423846E-3,3.1469125E-2,1.355946E-2,-1.2825811E-2],"split_indices":[0,1,0,0,0,1,0,1,2,0,0,0,0],"split_type":[0,0,0,0,0,0,0,0,0,0,0,0,0],"sum_hessian":[2.4836494E1,5.504204E0,1.933229E1,3.6018183E0,1.9023857E0,1.5498523E1,3.8337684E0,2.7802544E0,1.2718268E1,1.1993034E0,1.5809509E0,3.7966313E0,8.921637E0],"tree_param":{"num_deleted":"0","num_feature":"3","num_nodes":"13","size_leaf_vector":"1"}},{"base_weights":[-4.177214E-9,-2.5862747E-1,8.2960896E-2,-2.960234E-2,-5.7241283E-3,2.1221867E-2,2.7525532E-1,1.342488E-1,-1.1061364E-1,3.5675954E-2,1.388508E-1,2.1977661E-2,-2.1396441E-2,-2.5817106E-2,1.2864106E-3,-1.1083032E-2,3.3587992E-2],"categories":[],"categories_nodes":[],"categories_segments":[],"categories_sizes":[],"default_left":[0,0,0,0,0,0,0,0,0,0,0,0,0,0,0,0,0],"id":42,"left_children":[1,3,5,-1,-1,7,9,11,13,-1,15,-1,-1,-1,-1,-1,-1],"loss_changes":[5.7157844E-1,3.1780213E-2,2.336146E-1,0E0,0E0,2.584997E-1,4.032463E-3,3.2266724E-1,1.508291E-1,0E0,2.0642605E-1,0E0,0E0,0E0,0E0,0E0,0E0],"parents":[2147483647,0,0,1,1,2,2,5,5,6,6,7,7,8,8,10,10],"right_children":[2,4,6,-1,-1,8,10,12,14,-1,16,-1,-1,-1,-1,-1,-1],"split_conditions":[-9.9692947E-1,-1.059162E0,9.8377246E-1,-2.960234E-2,-5.7241283E-3,1.925195E-1,1.2584628E0,4.378068E-1,5.301641E-1,3.5675954E-2,1.3880545E0,2.1977661E-2,-2.1396441E-2,-2.5817106E-2,1.2864106E-3,-1.1083032E-2,3.3587992E-2],"split_indices":[0,0,0,0,0,1,1,0,1,0,1,0,0,0,0,0,0],"split_type":[0,0,0,0,0,0,0,0,0,0,0,0,0,0,0,0,0],"sum_hessian":[2.46396E1,5.4699073E0,1.9169693E1,4.2169266E0,1.252981E0,1.5351291E1,3.8184023E0,8.255378E0,7.0959134E0,1.3789823E0,2.43942E0,6.923643E0,1.3317341E0,2.7357855E0,4.360128E0,1.2689111E0,1.1705087E0],"tree_param":{"num_deleted":"0","num_feature":"3","num_nodes":"17","size_leaf_vector":"1"}},{"base_weights":[1.5769531E-9,-2.5008616E-1,8.045518E-2,-3.9113734E-2,-1.4777789E-1,1.8903326E-2,2.754384E-2,-4.7308067E-3,-1.8214813E-1,2.4774802E-1,-4.5448527E-2,-2.556417E-2,4.579427E-4,5.882492E-3,3.1140273E-2,-2.5059238E-2,3.7181617E-3],"categories":[],"categories_nodes":[],"categories_segments":[],"categories_sizes":[],"default_left":[0,0,0,0,0,0,0,0,0,0,0,0,0,0,0,0,0],"id":43,"left_children":[1,3,5,-1,7,9,-1,-1,11,13,15,-1,-1,-1,-1,-1,-1],"loss_changes":[5.3108835E-1,3.4911245E-2,2.3446979E-1,0E0,9.791724E-3,2.5060338E-1,0E0,0E0,5.0866656E-2,2.6443988E-2,2.3867086E-1,0E0,0E0,0E0,0E0,0E0,0E0],"parents":[2147483647,0,0,1,1,2,2,4,4,5,5,8,8,9,9,10,10],"right_children":[2,4,6,-1,8,10,-1,-1,12,14,16,-1,-1,-1,-1,-1,-1],"split_conditions":[-9.9692947E-1,-1.4477655E0,9.8377246E-1,-3.9113734E-2,-1.2218862E0,-5.99908E-1,2.754384E-2,-4.7308067E-3,-1.059162E0,-1.3755116E0,-4.9488027E-2,-2.556417E-2,4.579427E-4,5.882492E-3,3.1140273E-2,-2.5059238E-2,3.7181617E-3],"split_indices":[0,0,0,0,1,1,0,0,0,1,0,0,0,0,0,0,0],"split_type":[0,0,0,0,0,0,0,0,0,0,0,0,0,0,0,0,0],"sum_hessian":[2.4395092E1,5.4246783E0,1.8970413E1,1.0936924E0,4.3309855E0,1.5252491E1,3.7179222E0,1.7096946E0,2.6212912E0,2.7221668E0,1.2530325E1,1.6161376E0,1.0051534E0,1.1709597E0,1.5512072E0,3.0142412E0,9.516084E0],"tree_param":{"num_deleted":"0","num_feature":"3","num_nodes":"17","size_leaf_vector":"1"}},{"base_weights":[5.905734E-9,-2.5192046E-1,8.143328E-2,-3.0924741E-2,-7.2619463E-3,2.1193177E-2,2.7122566E-2,2.3992994E-1,-3.981623E-2,6.3049407E-3,2.9716838E-2,1.12727545E-2,-1.4926818E-2],"categories":[],"categories_nodes":[],"categories_segments":[],"categories_sizes":[],"default_left":[0,0,0,0,0,0,0,0,0,0,0,0,0],"id":44,"left_children":[1,3,5,-1,-1,7,-1,9,11,-1,-1,-1,-1],"loss_changes":[5.381353E-1,4.340911E-2,2.208982E-1,0E0,0E0,2.2483917E-1,0E0,1.8325016E-2,2.4175358E-1,0E0,0E0,0E0,0E0],"parents":[2147483647,0,0,1,1,2,2,5,5,7,7,8,8],"right_children":[2,4,6,-1,-1,8,-1,10,12,-1,-1,-1,-1],"split_conditions":[-9.9692947E-1,-6.583984E-1,9.8377246E-1,-3.0924741E-2,-7.2619463E-3,-5.99908E-1,2.7122566E-2,-1.3755116E0,-7.569378E-1,6.3049407E-3,2.9716838E-2,1.12727545E-2,-1.4926818E-2],"split_indices":[0,1,0,0,0,1,0,1,2,0,0,0,0],"split_type":[0,0,0,0,0,0,0,0,0,0,0,0,0],"sum_hessian":[2.4231682E1,5.4080033E0,1.8823679E1,3.5486677E0,1.8593359E0,1.51323395E1,3.69134E0,2.6606066E0,1.2471733E1,1.1642659E0,1.4963406E0,5.197718E0,7.274015E0],"tree_param":{"num_deleted":"0","num_feature":"3","num_nodes":"13","size_leaf_vector":"1"}},{"base_weights":[4.687334E-9,-2.5041544E-1,8.0958106E-2,-2.917715E-2,-5.839122E-3,2.1538394E-2,2.6698044E-1,1.309575E-1,-1.0659146E-1,3.4650695E-2,1.3259701E-1,2.1519005E-2,-2.1106841E-2,-2.8423846E-2,-1.1626933E-3,-1.096746E-2,3.2573007E-2],"categories":[],"categories_nodes":[],"categories_segments":[],"categories_sizes":[],"default_left":[0,0,0,0,0,0,0,0,0,0,0,0,0,0,0,0,0],"id":45,"left_children":[1,3,5,-1,-1,7,9,11,13,-1,15,-1,-1,-1,-1,-1,-1],"loss_changes":[5.278084E-1,3.3474833E-2,2.1171688E-1,0E0,0E0,2.3826277E-1,4.0186644E-3,3.069633E-1,1.3031876E-1,0E0,1.9284788E-1,0E0,0E0,0E0,0E0,0E0,0E0],"parents":[2147483647,0,0,1,1,2,2,5,5,6,6,7,7,8,8,10,10],"right_children":[2,4,6,-1,-1,8,10,12,14,-1,16,-1,-1,-1,-1,-1,-1],"split_conditions":[-9.9692947E-1,-5.6074035E-1,9.8377246E-1,-2.917715E-2,-5.839122E-3,1.925195E-1,1.2584628E0,4.378068E-1,3.7347022E-1,3.4650695E-2,1.3880545E0,2.1519005E-2,-2.1106841E-2,-2.8423846E-2,-1.1626933E-3,-1.096746E-2,3.2573007E-2],"split_indices":[0,1,0,0,0,1,1,0,1,0,1,0,0,0,0,0,0],"split_type":[0,0,0,0,0,0,0,0,0,0,0,0,0,0,0,0,0],"sum_hessian":[2.4034838E1,5.360589E0,1.867425E1,3.983266E0,1.3773227E0,1.4999012E1,3.675237E0,8.078308E0,6.9207044E0,1.317225E0,2.358012E0,6.7795167E0,1.2987908E0,1.716536E0,5.2041683E0,1.2376268E0,1.1203853E0],"tree_param":{"num_deleted":"0","num_feature":"3","num_nodes":"17","size_leaf_vector":"1"}},{"base_weights":[3.399491E-9,-1.6388036E-1,1.18589245E-1,-7.402625E-2,-4.319891E-2,-1.2880401E-1,1.8165497E-1,-2.4411899E-1,2.1141893E-1,6.8463967E-3,-2.3184348E-2,-2.6906826E-2,3.576755E-1,-3.8267538E-2,-1.4258358E-2,3.6057588E-3,3.4970105E-2,-2.3999339E-2,1.895305E-2,5.2780528E-2,1.3065021E-2],"categories":[],"categories_nodes":[],"categories_segments":[],"categories_sizes":[],"default_left":[0,0,0,0,0,0,0,0,0,0,0,0,0,0,0,0,0,0,0,0,0],"id":46,"left_children":[1,3,5,7,-1,9,11,13,15,-1,-1,17,19,-1,-1,-1,-1,-1,-1,-1,-1],"loss_changes":[5.0127906E-1,2.2889486E-1,2.5687477E-1,5.03992E-1,0E0,8.955537E-2,4.62623E-1,3.4102827E-2,8.4749565E-2,0E0,0E0,3.488514E-1,1.9220787E-1,0E0,0E0,0E0,0E0,0E0,0E0,0E0,0E0],"parents":[2147483647,0,0,1,1,2,2,3,3,5,5,6,6,7,7,8,8,11,11,12,12],"right_children":[2,4,6,8,-1,10,12,14,16,-1,-1,18,20,-1,-1,-1,-1,-1,-1,-1,-1],"split_conditions":[-4.9488027E-2,-2.4194287E-1,-2.5705436E-1,-9.9692947E-1,-4.319891E-2,-8.724672E-1,-2.0036589E-1,-1.4477655E0,-8.469747E-1,6.8463967E-3,-2.3184348E-2,3.8842323E-1,9.251836E-1,-3.8267538E-2,-1.4258358E-2,3.6057588E-3,3.4970105E-2,-2.3999339E-2,1.895305E-2,5.2780528E-2,1.3065021E-2],"split_indices":[0,0,1,0,0,1,2,0,0,0,0,0,1,0,0,0,0,0,0,0,0],"split_type":[0,0,0,0,0,0,0,0,0,0,0,0,0,0,0,0,0,0,0,0,0],"sum_hessian":[2.3793327E1,9.828815E0,1.3964512E1,8.317417E0,1.5113982E0,2.624965E0,1.1339547E1,5.3025064E0,3.0149105E0,1.0157938E0,1.609171E0,5.577757E0,5.7617908E0,1.0714744E0,4.231032E0,1.8850956E0,1.1298149E0,2.7557926E0,2.8219643E0,2.5362692E0,3.2255216E0],"tree_param":{"num_deleted":"0","num_feature":"3","num_nodes":"21","size_leaf_vector":"1"}},{"base_weights":[1.5970498E-9,-1.6086227E-1,1.1828878E-1,-6.819421E-2,-4.3353606E-2,-1.16262436E-1,1.7813072E-1,-2.3420578E-1,2.1215038E-1,6.1629955E-3,-2.1018213E-2,-1.6643178E-2,3.4332243E-1,-2.9161949E-2,-6.2200706E-3,4.2282827E-3,3.4270238E-2,1.3906057E-2,-2.8676102E-2,5.0234254E-2,1.371973E-2],"categories":[],"categories_nodes":[],"categories_segments":[],"categories_sizes":[],"default_left":[0,0,0,0,0,0,0,0,0,0,0,0,0,0,0,0,0,0,0,0,0],"id":47,"left_children":[1,3,5,7,-1,9,11,13,15,-1,-1,17,19,-1,-1,-1,-1,-1,-1,-1,-1],"loss_changes":[4.850741E-1,2.4338844E-1,2.2690041E-1,4.8013717E-1,0E0,7.295336E-2,3.94998E-1,4.392153E-2,7.343149E-2,0E0,0E0,3.135126E-1,1.4718091E-1,0E0,0E0,0E0,0E0,0E0,0E0,0E0,0E0],"parents":[2147483647,0,0,1,1,2,2,3,3,5,5,6,6,7,7,8,8,11,11,12,12],"right_children":[2,4,6,8,-1,10,12,14,16,-1,-1,18,20,-1,-1,-1,-1,-1,-1,-1,-1],"split_conditions":[-4.9488027E-2,-2.4194287E-1,-2.5705436E-1,-9.9692947E-1,-4.3353606E-2,-8.724672E-1,-2.0036589E-1,-6.583984E-1,-8.469747E-1,6.1629955E-3,-2.1018213E-2,-1.3135097E0,9.251836E-1,-2.9161949E-2,-6.2200706E-3,4.2282827E-3,3.4270238E-2,1.3906057E-2,-2.8676102E-2,5.0234254E-2,1.371973E-2],"split_indices":[0,0,1,0,0,1,2,1,0,0,0,2,1,0,0,0,0,0,0,0,0],"split_type":[0,0,0,0,0,0,0,0,0,0,0,0,0,0,0,0,0,0,0,0,0],"sum_hessian":[2.3492378E1,9.80226E0,1.3690119E1,8.248952E0,1.5533079E0,2.5911705E0,1.10989485E1,5.2843184E0,2.9646342E0,1.0141258E0,1.5770446E0,5.5060887E0,5.5928593E0,3.440499E0,1.8438191E0,1.8636396E0,1.1009945E0,3.8005354E0,1.7055534E0,2.345947E0,3.246912E0],"tree_param":{"num_deleted":"0","num_feature":"3","num_nodes":"21","size_leaf_vector":"1"}},{"base_weights":[8.856667E-10,-1.5355924E-1,1.1334419E-1,-6.264308E-2,-4.236309E-2,-1.08750075E-1,1.7008601E-1,-2.2329044E-1,2.1093434E-1,5.498028E-3,-1.9522553E-2,-1.8446056E-2,3.3160302E-1,-3.8291406E-2,-1.1561862E-2,4.50141E-3,3.3620857E-2,-2.6658965E-2,1.3840075E-2,4.8553396E-2,1.3767629E-2],"categories":[],"categories_nodes":[],"categories_segments":[],"categories_sizes":[],"default_left":[0,0,0,0,0,0,0,0,0,0,0,0,0,0,0,0,0,0,0,0,0],"id":48,"left_children":[1,3,5,7,-1,9,11,13,15,-1,-1,17,19,-1,-1,-1,-1,-1,-1,-1,-1],"loss_changes":[4.3835732E-1,2.3607665E-1,2.0110306E-1,4.5034832E-1,0E0,6.1119616E-2,3.694457E-1,6.343064E-2,6.611124E-2,0E0,0E0,2.880374E-1,1.2655646E-1,0E0,0E0,0E0,0E0,0E0,0E0,0E0,0E0],"parents":[2147483647,0,0,1,1,2,2,3,3,5,5,6,6,7,7,8,8,11,11,12,12],"right_children":[2,4,6,8,-1,10,12,14,16,-1,-1,18,20,-1,-1,-1,-1,-1,-1,-1,-1],"split_conditions":[-4.9488027E-2,-2.4194287E-1,-2.5705436E-1,-9.9692947E-1,-4.236309E-2,-8.724672E-1,-2.0036589E-1,-1.4477655E0,-8.469747E-1,5.498028E-3,-1.9522553E-2,3.1734303E-1,9.251836E-1,-3.8291406E-2,-1.1561862E-2,4.50141E-3,3.3620857E-2,-2.6658965E-2,1.3840075E-2,4.8553396E-2,1.3767629E-2],"split_indices":[0,0,1,0,0,1,2,0,0,0,0,0,1,0,0,0,0,0,0,0,0],"split_type":[0,0,0,0,0,0,0,0,0,0,0,0,0,0,0,0,0,0,0,0,0],"sum_hessian":[2.3185644E1,9.695428E0,1.3490216E1,8.175276E0,1.5201521E0,2.5586758E0,1.093154E1,5.26653E0,2.908746E0,1.0101998E0,1.5484761E0,5.452666E0,5.478874E0,1.0917307E0,4.1747994E0,1.8361586E0,1.0725873E0,1.8407607E0,3.611905E0,2.2161162E0,3.262758E0],"tree_param":{"num_deleted":"0","num_feature":"3","num_nodes":"21","size_leaf_vector":"1"}},{"base_weights":[-4.673518E-10,-6.166875E-2,2.7296618E-2,-2.5856945E-1,2.5664144E-3,-3.7768666E-2,-1.2968142E-1,9.0741E-2,-1.1316047E-1,2.9450941E-3,-2.3038091E-2,1.5383241E-2,-1.9276774E-2,4.6469206E-3,-2.4077324E-2],"categories":[],"categories_nodes":[],"categories_segments":[],"categories_sizes":[],"default_left":[0,0,0,0,0,0,0,0,0,0,0,0,0,0,0],"id":49,"left_children":[1,3,-1,5,7,-1,9,11,13,-1,-1,-1,-1,-1,-1],"loss_changes":[4.1937566E-1,2.5769544E-1,0E0,2.7918696E-2,1.7673202E-1,0E0,6.973878E-2,2.0519304E-1,1.6395932E-1,0E0,0E0,0E0,0E0,0E0,0E0],"parents":[2147483647,0,0,1,1,3,3,4,4,6,6,7,7,8,8],"right_children":[2,4,-1,6,8,-1,10,12,14,-1,-1,-1,-1,-1,-1],"split_conditions":[9.8377246E-1,-1.059162E0,2.7296618E-2,-1.4477655E0,1.925195E-1,-3.7768666E-2,-1.2218862E0,4.378068E-1,-1.3135097E0,2.9450941E-3,-2.3038091E-2,1.5383241E-2,-1.9276774E-2,4.6469206E-3,-2.4077324E-2],"split_indices":[0,0,0,0,1,0,1,0,2,0,0,0,0,0,0],"split_type":[0,0,0,0,0,0,0,0,0,0,0,0,0,0,0],"sum_hessian":[2.2913185E1,1.9322018E1,3.5911677E0,4.008713E0,1.5313305E1,1.0801243E0,2.9285886E0,8.813801E0,6.499504E0,1.4092033E0,1.5193852E0,7.583568E0,1.2302327E0,3.1700165E0,3.3294873E0],"tree_param":{"num_deleted":"0","num_feature":"3","num_nodes":"15","size_leaf_vector":"1"}}]},"name":"gbtree"},"learner_model_param":{"base_score":"[-8.7446015E-9]","boost_from_average":"1","num_class":"0","num_feature":"3","num_target":"1"},"objective":{"lambdarank_param":{"lambdarank_bias_norm":"1","lambdarank_normalization":"1","lambdarank_num_pair_per_sample":"4294967295","lambdarank_pair_method":"topk","lambdarank_score_normalization":"1","lambdarank_unbiased":"0","ndcg_exp_gain":"1"},"name":"rank:pairwise"}},"version":[3,2,0]}